svm_type c_svc
kernel_type rbf
gamma 0.00390625
nr_class 2
total_sv 147
rho 0.5872599547325241
label 4 0
nr_sv 61 86
SV
2.0 2:-1.0 3:0.1428571428571428 4:-1.0 5:-1.0 6:-1.0 7:-1.0 8:-0.6 9:-1.0 10:-1.0 11:-1.0 12:-1.0 13:-1.0 14:-1.0 15:-1.0 16:-1.0 17:-1.0 18:-1.0 19:-1.0 20:-1.0 21:-1.0 22:-0.7142857142857143 23:-1.0 25:-1.0 26:-1.0 27:0.1428571428571428 28:-1.0 29:-1.0 30:-1.0 31:-1.0 32:-0.5 33:-1.0 34:-1.0 35:-1.0 36:-1.0 37:-1.0 38:-1.0 39:-1.0 40:-1.0 41:-1.0 42:-1.0 43:-1.0 44:-1.0 45:-1.0 46:-1.0 49:-1.0 50:-0.7142857142857143 51:1.0 52:-1.0 53:-0.6 54:-1.0 55:-0.7142857142857143 56:-0.4285714285714286 57:-0.6666666666666667 58:-0.7142857142857143 59:-1.0 60:-1.0 61:-1.0 62:-1.0 63:-1.0 64:-1.0 65:-0.7142857142857143 66:-1.0 67:-0.7142857142857143 68:-0.4285714285714286 69:-1.0 70:-0.4285714285714286 71:-1.0 73:-1.0 74:-1.0 75:0.4285714285714286 76:-1.0 78:-0.7142857142857143 79:-0.7142857142857143 80:-0.1428571428571429 81:-0.4285714285714286 82:-0.7142857142857143 83:-1.0 84:-1.0 85:-1.0 86:-1.0 87:-1.0 88:-1.0 89:-1.0 90:-1.0 91:-1.0 92:-1.0 93:-1.0 94:-1.0 95:-1.0 97:-1.0 98:-1.0 99:-0.1428571428571429 100:-1.0 101:-1.0 102:-1.0 103:-1.0 104:-0.5 105:-1.0 106:-1.0 107:-1.0 108:-1.0 109:-1.0 110:-1.0 112:-1.0 113:-1.0 114:-1.0 115:-1.0 116:-1.0 117:-1.0 118:-1.0 121:-1.0 122:-1.0 124:-1.0 125:-1.0 126:-1.0 127:-1.0 128:-0.5 129:-1.0 130:-1.0 131:-1.0 132:-1.0 133:-1.0 134:-1.0 136:-1.0 137:-1.0 138:-1.0 139:-1.0 140:-1.0 141:-1.0 142:-1.0 145:-1.0 146:0.0714285714285714 147:0.23076923076923084 148:-0.24137931034482762 149:0.33333333333333326 150:-0.04347826086956519 151:-0.08333333333333337 152:-0.052631578947368474 153:-0.052631578947368474 154:-0.18181818181818177 155:0.21739130434782616 156:0.30434782608695654 157:0.11111111111111116 158:0.05263157894736836 159:0.17647058823529416 160:0.11111111111111116 161:-0.2941176470588235 163:-0.19999999999999996 164:-0.11111111111111116 165:0.23076923076923084 166:0.4444444444444444 167:-0.05882352941176472 169:0.06666666666666665 171:0.07692307692307687 172:-0.19999999999999996 173:-0.125 174:0.11111111111111116 175:0.19999999999999996 176:0.33333333333333326 177:0.16666666666666674 178:0.2727272727272727 179:0.16666666666666674 181:-0.11111111111111116 182:0.09090909090909083 183:0.09090909090909083 184:-0.11111111111111116 185:-0.1428571428571429 186:0.09090909090909083 187:-0.11111111111111116 188:-0.25 189:0.3999999999999999 192:0.11111111111111116 193:0.25 194:-0.07692307692307687 195:0.11111111111111116 196:0.1428571428571428 197:0.11111111111111116 198:0.5555555555555556 199:0.09090909090909083 200:0.11111111111111116 201:-0.11111111111111116 202:0.25 203:-0.1428571428571429 204:0.1428571428571428 205:0.25 206:0.1428571428571428 207:-0.1428571428571429 208:-0.33333333333333337 209:0.25 210:-0.05882352941176472 211:0.16666666666666674 212:-0.04761904761904767 213:-0.1428571428571429 214:0.3999999999999999 215:0.19999999999999996 216:0.1428571428571428 217:0.33333333333333326 218:-0.23076923076923073 220:-0.4 221:0.1428571428571428 222:-0.4285714285714286 223:-0.33333333333333337 224:-0.33333333333333337 225:0.1428571428571428 227:0.25 228:-0.19999999999999996 229:-0.11111111111111116 230:-0.4285714285714286 232:-0.19999999999999996 233:0.6000000000000001 234:-0.19999999999999996 235:0.1428571428571428 238:0.04761904761904767 239:-0.052631578947368474 241:0.05263157894736836 242:-0.19999999999999996 243:-0.33333333333333337 244:0.2857142857142858 246:0.11111111111111116 247:-0.2222222222222222 248:0.2857142857142858 249:-0.07692307692307687 250:0.6666666666666667 251:0.09090909090909083 252:0.19999999999999996 253:-0.09090909090909094 254:-0.4 255:-0.07692307692307687 256:0.19999999999999996 257:0.07692307692307687 258:0.2727272727272727 259:-0.19999999999999996 260:0.4545454545454546 261:-0.5555555555555556 262:0.09090909090909083 263:-0.19999999999999996 266:-1.0 267:1.0 268:-0.7142857142857143 269:-0.7142857142857143 270:-0.1428571428571429 271:-0.7142857142857143 272:1.0 273:-0.7142857142857143 274:-1.0 275:-0.1428571428571429 276:-0.1428571428571429 277:0.7142857142857142 278:-0.7142857142857143 279:-0.1428571428571429 280:0.1428571428571428 281:-1.0 282:1.0 283:-1.0 284:-0.4285714285714286 285:-0.4285714285714286 286:-0.7142857142857143 287:0.4285714285714286 288:-0.4285714285714286 289:-0.1428571428571429 290:-0.1428571428571429 291:0.1428571428571428 292:-0.4285714285714286 293:0.1428571428571428 294:-0.4285714285714286 295:0.4285714285714286 296:0.7142857142857142 297:-0.4285714285714286 298:-0.4285714285714286 299:-0.7142857142857143 300:0.7142857142857142 301:-0.7142857142857143 302:0.4285714285714286 303:-0.7142857142857143 304:-0.4285714285714286 305:-0.1428571428571429 306:-0.1428571428571429 307:-0.4285714285714286 308:0.4285714285714286 309:-0.1428571428571429 310:0.4285714285714286 311:0.1428571428571428 312:-0.4285714285714286 313:0.1428571428571428 314:0.1428571428571428 315:1.0 316:0.4285714285714286 317:0.1428571428571428 318:-0.1428571428571429 319:0.4285714285714286 320:0.4285714285714286 321:-0.4285714285714286 322:-0.1428571428571429 323:-0.7142857142857143 324:-0.1428571428571429 325:0.4285714285714286 326:-0.7142857142857143 327:-0.7142857142857143 328:-0.7142857142857143 329:-0.4285714285714286 330:0.7142857142857142 331:-0.4285714285714286 332:0.1428571428571428 333:0.1428571428571428 334:0.4285714285714286 335:0.7142857142857142 336:0.4285714285714286 337:-0.4285714285714286 338:-0.7142857142857143 339:-0.1428571428571429 340:0.7142857142857142 341:-0.4285714285714286 342:-0.7142857142857143 343:-0.1428571428571429 344:-0.4285714285714286 345:0.7142857142857142 346:-0.7735849056603774 347:-0.13235294117647056 348:0.009345794392523255 349:0.20261437908496727 350:0.2592592592592593 351:0.295774647887324 352:0.09278350515463907 353:0.49090909090909096 354:0.4054054054054055 355:0.894736842105263 356:0.8095238095238095 357:0.8591549295774648 363:0.06666666666666665 366:-0.2666666666666667 367:0.19999999999999996 368:0.0714285714285714 369:-0.2432432432432432 378:-1.0 379:-1.0 380:-0.33333333333333337 381:0.75 382:-0.33333333333333337 383:-0.33333333333333337 384:1.0 385:0.6470588235294117 386:0.625 387:1.0 388:1.0 389:1.0 390:1.0 391:1.0 392:1.0 393:0.8 411:-0.7142857142857143 412:1.0 413:-1.0 414:-0.6 415:-1.0 416:-0.7142857142857143 417:-0.1428571428571429 418:-0.6666666666666667 419:-0.7142857142857143 420:-0.7142857142857143 421:-1.0 422:-1.0 423:-1.0 424:-1.0 425:-1.0 426:-0.7142857142857143 427:-1.0 428:-0.7142857142857143 429:-0.4285714285714286 430:-1.0 431:-0.1428571428571429 432:-1.0 434:-1.0 435:-1.0 436:0.1428571428571428 437:-1.0 438:-0.33333333333333337 439:-1.0 440:-1.0 441:-0.6 442:-1.0 443:-1.0 444:-1.0 445:-1.0 446:-1.0 447:-1.0 449:-1.0 450:-1.0 451:-1.0 452:-1.0 453:-0.5 454:-1.0 455:-0.5 456:-1.0 458:-1.0 459:-1.0 460:-0.4285714285714286 461:-1.0 462:-1.0 463:-1.0 464:-1.0 466:-1.0 467:-1.0 468:-1.0 469:-1.0 470:-1.0 471:-1.0 473:-1.0 474:-1.0 476:-1.0 477:-1.0 479:-1.0 482:-1.0 483:-1.0 484:-0.33333333333333337 485:-1.0 486:-1.0 487:-1.0 488:-1.0 489:-1.0 490:-1.0 491:-1.0 492:-1.0 494:-1.0 495:-1.0 497:-1.0 498:-1.0 500:-1.0 501:-1.0 503:-1.0 506:-1.0 507:-1.0 508:-1.0 509:-1.0 513:-1.0 514:-1.0 515:-1.0 516:-1.0 522:-1.0 524:-1.0 525:-1.0 527:-1.0 531:-1.0 532:-0.33333333333333337 533:-1.0 537:-1.0 538:-1.0 539:-1.0 540:-1.0 546:-1.0 548:-1.0 549:-1.0 551:-1.0 556:-1.0 557:-1.0 561:-1.0 563:-1.0 564:-1.0 570:-1.0 572:-1.0 573:-1.0 575:-1.0 579:-1.0 580:-1.0 581:-1.0 585:-1.0 587:-1.0 588:-1.0 594:-1.0 596:-1.0 597:-1.0 599:-1.0 604:0.6813792857270342 605:-0.49335313275530446 606:-0.9198606271777003 607:-0.669250645994832 608:-0.5514950166112957 609:-0.5319148936170213 610:-0.1684782608695652 611:-0.39651837524177946 612:-0.3947826086956522 613:-0.6588380716934488 614:-0.37866354044548656 615:-0.28601252609603345 616:-0.4726166328600405 617:-0.7027027027027026 618:-0.7001414427157002 619:-0.5923753665689149 620:-0.654627539503386 621:-0.6941694169416941 
2.0 2:-1.0 3:0.1428571428571428 4:-1.0 5:-1.0 6:-1.0 7:-1.0 8:-0.6 9:-1.0 10:-1.0 11:-1.0 12:-1.0 13:-1.0 14:-1.0 15:-1.0 16:-1.0 17:-1.0 18:-1.0 19:-1.0 20:-1.0 21:-1.0 22:-0.7142857142857143 23:-1.0 25:-1.0 26:-1.0 27:0.4285714285714286 28:-1.0 29:-1.0 30:-1.0 31:-1.0 32:-0.5 33:-0.33333333333333337 34:-1.0 35:-1.0 36:-1.0 37:-1.0 38:-1.0 39:-1.0 40:-1.0 41:-1.0 42:-1.0 43:-1.0 44:-1.0 45:-1.0 46:-1.0 49:-1.0 50:-1.0 51:1.0 52:-1.0 53:-0.6 54:-1.0 55:-1.0 56:-0.7142857142857143 57:-1.0 58:-0.7142857142857143 59:-1.0 60:-1.0 61:-1.0 62:-1.0 63:-1.0 64:-1.0 65:-1.0 66:-1.0 67:-1.0 68:-0.7142857142857143 69:-1.0 70:-0.7142857142857143 71:-1.0 73:-1.0 74:-1.0 75:0.7142857142857142 76:-1.0 77:-0.5 78:-1.0 79:-1.0 80:-0.1428571428571429 81:-0.4285714285714286 82:-0.7142857142857143 83:-1.0 84:-1.0 85:-1.0 86:-1.0 87:-1.0 88:-1.0 89:-1.0 90:-1.0 91:-1.0 92:-1.0 93:-1.0 94:-1.0 95:-1.0 97:-1.0 98:-1.0 99:-0.1428571428571429 100:-1.0 101:-1.0 102:-1.0 103:-1.0 104:-0.5 105:-1.0 106:-1.0 107:-1.0 108:-1.0 109:-1.0 110:-1.0 112:-1.0 113:-1.0 114:-1.0 115:-1.0 116:-1.0 117:-1.0 118:-1.0 121:-1.0 122:-1.0 124:-1.0 125:-1.0 126:-1.0 127:-1.0 128:-0.5 129:-1.0 130:-1.0 131:-1.0 132:-1.0 133:-1.0 134:-1.0 136:-1.0 137:-1.0 138:-1.0 139:-1.0 140:-1.0 141:-1.0 142:-1.0 145:-1.0 146:0.0714285714285714 147:-0.07692307692307687 148:0.10344827586206895 149:0.18518518518518512 150:0.13043478260869557 151:-0.08333333333333337 152:0.05263157894736836 153:0.05263157894736836 155:0.13043478260869557 156:0.13043478260869557 157:-0.11111111111111116 158:-0.26315789473684215 159:0.05882352941176472 160:-0.11111111111111116 161:-0.05882352941176472 162:0.1428571428571428 163:-0.19999999999999996 164:0.22222222222222232 165:-0.07692307692307687 166:0.22222222222222232 167:-0.05882352941176472 169:0.33333333333333326 170:0.1428571428571428 171:0.23076923076923084 172:-0.4 176:0.33333333333333326 177:-0.16666666666666663 178:0.09090909090909083 179:-0.16666666666666663 181:-0.11111111111111116 182:0.2727272727272727 183:-0.09090909090909094 184:0.5555555555555556 185:0.1428571428571428 186:0.09090909090909083 187:0.11111111111111116 188:-0.25 189:0.3999999999999999 190:-0.25 191:0.19999999999999996 192:-0.11111111111111116 194:-0.23076923076923073 195:-0.11111111111111116 196:0.1428571428571428 197:-0.11111111111111116 198:0.33333333333333326 199:-0.09090909090909094 200:0.5555555555555556 201:-0.11111111111111116 202:0.25 203:0.1428571428571428 204:0.1428571428571428 205:0.25 206:0.4285714285714286 207:-0.1428571428571429 208:-0.33333333333333337 210:-0.11764705882352944 211:0.16666666666666674 212:-0.23809523809523814 213:-0.1428571428571429 214:0.3999999999999999 216:-0.1428571428571429 218:-0.23076923076923073 219:-0.19999999999999996 220:-0.4 221:-0.1428571428571429 222:0.1428571428571428 223:-0.33333333333333337 224:0.33333333333333326 225:0.1428571428571428 228:-0.6 229:-0.11111111111111116 230:-0.4285714285714286 232:0.19999999999999996 233:-0.19999999999999996 234:0.19999999999999996 235:-0.4285714285714286 237:-0.6666666666666667 238:0.04761904761904767 239:-0.052631578947368474 241:0.05263157894736836 242:-0.33333333333333337 244:0.2857142857142858 245:0.19999999999999996 247:-0.11111111111111116 248:0.2857142857142858 249:0.07692307692307687 250:0.16666666666666674 251:0.09090909090909083 252:-0.4 253:0.09090909090909083 254:-0.4 255:-0.07692307692307687 256:0.19999999999999996 257:0.3846153846153846 258:0.2727272727272727 260:0.2727272727272727 261:-0.11111111111111116 262:-0.09090909090909094 263:0.3999999999999999 265:0.3999999999999999 266:-1.0 267:0.7142857142857142 268:-0.4285714285714286 269:-0.7142857142857143 270:-0.1428571428571429 271:-1.0 272:0.4285714285714286 273:-0.7142857142857143 274:-1.0 275:0.1428571428571428 276:-0.7142857142857143 277:0.4285714285714286 278:-0.4285714285714286 279:-0.7142857142857143 280:0.4285714285714286 281:-0.7142857142857143 282:0.7142857142857142 283:-0.1428571428571429 284:-1.0 285:-0.4285714285714286 286:-0.7142857142857143 287:0.7142857142857142 288:-0.7142857142857143 289:-0.7142857142857143 290:-0.4285714285714286 291:0.1428571428571428 292:0.1428571428571428 293:0.1428571428571428 294:-0.4285714285714286 295:0.1428571428571428 296:-0.1428571428571429 297:-0.1428571428571429 298:-0.4285714285714286 299:-0.1428571428571429 300:0.4285714285714286 301:-1.0 302:0.4285714285714286 303:-1.0 304:-0.7142857142857143 305:-1.0 306:-0.1428571428571429 307:-0.1428571428571429 308:0.1428571428571428 309:-0.1428571428571429 310:0.7142857142857142 311:0.1428571428571428 312:-0.1428571428571429 313:-0.4285714285714286 314:-0.1428571428571429 315:1.0 316:-0.4285714285714286 317:-0.7142857142857143 318:-0.1428571428571429 319:-0.1428571428571429 320:0.7142857142857142 321:-0.7142857142857143 322:-0.1428571428571429 323:-0.1428571428571429 324:0.1428571428571428 325:1.0 326:-0.4285714285714286 327:-0.4285714285714286 328:-0.1428571428571429 329:0.1428571428571428 330:1.0 331:-0.4285714285714286 332:-0.4285714285714286 333:-0.1428571428571429 334:0.1428571428571428 335:1.0 336:-0.1428571428571429 337:-0.1428571428571429 338:-0.1428571428571429 339:-0.1428571428571429 340:0.7142857142857142 341:0.1428571428571428 342:-0.7142857142857143 343:0.1428571428571428 344:0.1428571428571428 345:0.7142857142857142 346:-0.6226415094339622 347:-0.2647058823529411 348:-0.04672897196261683 349:0.26797385620915026 350:0.2592592592592593 351:0.323943661971831 352:0.09278350515463907 353:0.38181818181818183 354:-0.1351351351351351 355:0.868421052631579 356:0.8095238095238095 357:0.7183098591549295 362:-0.1428571428571429 363:0.06666666666666665 366:-0.19999999999999996 367:0.16363636363636358 368:0.0714285714285714 369:-0.18918918918918914 378:-1.0 379:-1.0 380:-0.33333333333333337 381:0.75 382:-0.33333333333333337 383:-0.33333333333333337 384:0.75 385:0.41176470588235303 386:0.375 387:0.25 388:0.875 389:1.0 390:1.0 391:1.0 392:1.0 393:0.7 411:-1.0 412:1.0 413:-1.0 414:-0.6 415:-1.0 416:-0.7142857142857143 417:-0.1428571428571429 418:-0.33333333333333337 419:-0.7142857142857143 420:-0.7142857142857143 421:-1.0 422:-1.0 423:-1.0 424:-1.0 425:-1.0 426:-1.0 427:-1.0 428:-0.7142857142857143 429:-0.7142857142857143 430:-1.0 431:-0.4285714285714286 432:-1.0 434:-1.0 435:-1.0 436:0.1428571428571428 437:-1.0 438:-1.0 439:-1.0 440:-1.0 441:-0.6 442:-1.0 443:-1.0 444:-1.0 445:-1.0 446:-1.0 447:-1.0 449:-1.0 450:-1.0 451:-1.0 452:-1.0 453:-1.0 454:-1.0 455:-1.0 456:-1.0 458:-1.0 459:-1.0 460:-0.1428571428571429 461:-1.0 462:-1.0 463:-1.0 464:-1.0 466:-1.0 467:-1.0 468:-1.0 469:-1.0 470:-1.0 471:-1.0 473:-1.0 474:-1.0 476:-1.0 477:-1.0 479:-1.0 482:-1.0 483:-1.0 484:-0.33333333333333337 485:-1.0 486:-1.0 487:-1.0 488:-1.0 489:-1.0 490:-1.0 491:-1.0 492:-1.0 494:-1.0 495:-1.0 497:-1.0 498:-1.0 500:-1.0 501:-1.0 503:-1.0 506:-1.0 507:-1.0 508:0.33333333333333326 509:-1.0 513:-1.0 514:-1.0 515:-1.0 516:-1.0 522:-1.0 524:-1.0 525:-1.0 527:-1.0 531:-1.0 532:0.33333333333333326 533:-1.0 537:-1.0 538:-1.0 539:-1.0 540:-1.0 546:-1.0 548:-1.0 549:-1.0 551:-1.0 556:-0.5 557:-1.0 561:-1.0 563:-1.0 564:-1.0 570:-1.0 572:-1.0 573:-1.0 575:-1.0 579:-1.0 580:-0.33333333333333337 581:-1.0 585:-1.0 587:-1.0 588:-1.0 594:-1.0 596:-1.0 597:-1.0 599:-1.0 604:0.5416199303382729 605:-0.5013755780607396 606:-0.913472706155633 607:-0.6098191214470284 608:-0.4584717607973422 609:-0.475177304964539 610:0.02717391304347827 611:-0.3733075435203095 612:-0.09217391304347822 613:-0.4511742892459827 614:-0.19109026963657683 615:-0.02713987473903967 616:-0.281947261663286 617:-0.7089397089397089 618:-0.553041018387553 619:-0.6041055718475073 620:-0.6952595936794582 621:-0.7667766776677668 
2.0 2:-1.0 3:0.4285714285714286 4:-1.0 5:-1.0 6:-1.0 7:-1.0 8:-0.6 9:-1.0 10:-1.0 11:-1.0 12:-1.0 13:-1.0 14:-1.0 15:-1.0 16:-1.0 17:-1.0 18:-1.0 19:-1.0 20:-1.0 21:-1.0 22:-1.0 23:-1.0 25:-1.0 26:-1.0 27:0.4285714285714286 28:-1.0 29:1.0 30:-1.0 31:-1.0 32:-0.5 33:-0.33333333333333337 34:-1.0 35:-1.0 36:-1.0 37:-1.0 38:-1.0 39:-1.0 40:-1.0 41:-1.0 42:-1.0 43:-1.0 44:-1.0 45:-1.0 46:-1.0 49:-1.0 50:-1.0 51:1.0 52:-1.0 53:-0.6 54:-1.0 55:-1.0 56:-0.7142857142857143 57:-1.0 58:-1.0 59:-1.0 60:-1.0 61:-1.0 62:-1.0 63:-1.0 64:-1.0 65:-1.0 66:-1.0 67:-1.0 68:-0.7142857142857143 69:-1.0 70:-0.7142857142857143 71:-1.0 73:-1.0 74:-1.0 75:1.0 76:-1.0 77:-0.5 78:-1.0 79:-1.0 80:-0.4285714285714286 81:-0.7142857142857143 82:-0.7142857142857143 83:-1.0 84:-1.0 85:-1.0 86:-1.0 87:-1.0 88:-1.0 89:-1.0 90:-1.0 91:-1.0 92:-1.0 93:-1.0 94:-1.0 95:-1.0 97:-1.0 98:-1.0 99:-0.1428571428571429 100:-1.0 101:-1.0 102:-1.0 103:-1.0 104:-0.5 105:-1.0 106:-1.0 107:-1.0 108:-1.0 109:-1.0 110:-1.0 112:-1.0 113:-1.0 114:-1.0 115:-1.0 116:-1.0 117:-1.0 118:-1.0 121:-1.0 122:-1.0 124:-1.0 125:-1.0 126:-1.0 127:-1.0 128:-0.5 129:-1.0 130:-1.0 131:-1.0 132:-1.0 133:-1.0 134:-1.0 136:-1.0 137:-1.0 138:-1.0 139:-1.0 140:-1.0 141:-1.0 142:-1.0 145:-1.0 146:0.1071428571428572 148:-0.10344827586206895 149:-0.11111111111111116 150:0.13043478260869557 151:-0.08333333333333337 152:-0.1578947368421053 153:0.05263157894736836 154:-0.09090909090909094 155:-0.04347826086956519 156:-0.30434782608695654 157:-0.2222222222222222 158:-0.1578947368421053 159:-0.05882352941176472 160:-0.2222222222222222 161:-0.17647058823529416 162:0.1428571428571428 163:0.06666666666666665 164:-0.11111111111111116 165:-0.07692307692307687 166:-0.11111111111111116 167:-0.05882352941176472 168:0.16666666666666674 169:0.19999999999999996 170:0.1428571428571428 171:0.23076923076923084 172:-0.19999999999999996 173:-0.125 174:0.11111111111111116 175:0.19999999999999996 176:0.11111111111111116 178:0.2727272727272727 179:-0.16666666666666663 180:0.19999999999999996 181:-0.11111111111111116 182:0.09090909090909083 183:0.09090909090909083 184:0.11111111111111116 185:0.1428571428571428 186:-0.09090909090909094 187:0.11111111111111116 188:-0.25 189:0.19999999999999996 190:-0.25 191:0.19999999999999996 192:0.11111111111111116 194:-0.23076923076923073 195:-0.11111111111111116 196:0.1428571428571428 197:-0.11111111111111116 198:0.11111111111111116 199:-0.09090909090909094 200:0.33333333333333326 201:-0.11111111111111116 202:0.25 203:0.1428571428571428 204:0.1428571428571428 206:0.4285714285714286 207:0.1428571428571428 208:-0.33333333333333337 210:-0.05882352941176472 211:0.33333333333333326 212:-0.23809523809523814 213:-0.1428571428571429 214:0.3999999999999999 216:-0.1428571428571429 218:-0.23076923076923073 219:0.3999999999999999 221:-0.1428571428571429 222:0.4285714285714286 223:-0.33333333333333337 224:0.11111111111111116 225:-0.1428571428571429 228:-0.19999999999999996 229:-0.11111111111111116 230:-0.1428571428571429 231:-0.33333333333333337 232:-0.19999999999999996 233:-0.19999999999999996 234:0.19999999999999996 235:-0.1428571428571429 237:0.33333333333333326 238:0.04761904761904767 239:-0.26315789473684215 240:0.10000000000000009 241:0.1578947368421053 242:-0.33333333333333337 243:0.16666666666666674 244:0.4285714285714286 246:0.22222222222222232 247:-0.33333333333333337 248:-0.1428571428571429 249:0.07692307692307687 251:0.2727272727272727 252:-0.19999999999999996 253:0.09090909090909083 254:-0.4 255:-0.23076923076923073 256:0.3999999999999999 257:0.23076923076923084 258:0.09090909090909083 260:0.4545454545454546 261:0.11111111111111116 262:-0.09090909090909094 265:-0.19999999999999996 266:-1.0 267:0.7142857142857142 268:-1.0 269:-0.7142857142857143 270:-1.0 271:-1.0 272:0.7142857142857142 273:-0.7142857142857143 274:-1.0 275:-0.7142857142857143 276:-1.0 277:0.4285714285714286 278:-0.4285714285714286 279:-0.4285714285714286 280:-0.1428571428571429 281:-1.0 282:0.7142857142857142 283:-1.0 284:-1.0 285:-0.7142857142857143 286:-0.7142857142857143 287:-0.4285714285714286 288:-1.0 289:-0.7142857142857143 290:-0.1428571428571429 291:-0.7142857142857143 292:-0.4285714285714286 293:-0.1428571428571429 294:-0.1428571428571429 295:0.1428571428571428 296:-0.1428571428571429 297:-0.4285714285714286 298:0.4285714285714286 299:-0.1428571428571429 300:0.7142857142857142 301:-0.4285714285714286 302:-0.1428571428571429 303:-0.7142857142857143 304:0.1428571428571428 305:0.4285714285714286 306:0.1428571428571428 307:-0.4285714285714286 308:0.1428571428571428 309:0.7142857142857142 310:1.0 311:-0.1428571428571429 312:-0.1428571428571429 313:-0.1428571428571429 314:0.1428571428571428 315:0.4285714285714286 316:-0.4285714285714286 317:-0.1428571428571429 318:-0.1428571428571429 319:-0.4285714285714286 320:0.7142857142857142 321:0.1428571428571428 322:-0.4285714285714286 323:-0.7142857142857143 324:0.1428571428571428 325:-0.1428571428571429 326:-0.1428571428571429 327:-0.4285714285714286 328:0.4285714285714286 329:0.1428571428571428 330:1.0 331:-0.1428571428571429 332:-0.7142857142857143 333:0.1428571428571428 334:1.0 335:1.0 336:0.1428571428571428 337:-0.4285714285714286 338:0.4285714285714286 339:-0.1428571428571429 340:1.0 341:-0.4285714285714286 342:-0.7142857142857143 343:-0.1428571428571429 344:0.7142857142857142 345:1.0 346:-0.7452830188679245 347:-0.22058823529411764 348:-0.03738317757009346 349:0.21568627450980382 350:0.23456790123456783 351:0.380281690140845 352:0.11340206185567014 353:0.49090909090909096 354:0.1351351351351351 355:0.9210526315789473 356:0.8571428571428572 357:0.8591549295774648 362:-0.4285714285714286 363:0.06666666666666665 364:0.33333333333333326 366:-0.2666666666666667 367:0.16363636363636358 368:0.0714285714285714 369:-0.2432432432432432 378:-1.0 379:-1.0 380:0.33333333333333326 381:0.875 382:0.33333333333333326 383:-0.33333333333333337 384:1.0 385:0.6470588235294117 386:0.5 387:0.75 388:0.875 389:1.0 390:1.0 391:1.0 392:1.0 393:0.8 411:-1.0 412:1.0 413:-1.0 414:-0.6 415:-1.0 416:-1.0 417:-0.1428571428571429 418:-0.33333333333333337 419:-0.7142857142857143 420:-0.7142857142857143 421:-1.0 422:-1.0 423:-1.0 424:-1.0 425:-1.0 426:-1.0 427:-1.0 428:-1.0 429:-0.7142857142857143 430:-1.0 431:-0.7142857142857143 432:-1.0 434:-1.0 435:-1.0 436:0.1428571428571428 437:-1.0 438:-1.0 439:-1.0 440:-1.0 441:-0.6 442:-1.0 443:-1.0 444:-1.0 445:-1.0 446:-1.0 447:-1.0 449:-1.0 450:-1.0 451:-1.0 452:-1.0 453:-1.0 454:-1.0 455:-1.0 456:-1.0 458:-1.0 459:-1.0 460:0.1428571428571428 461:-1.0 462:-1.0 463:-1.0 464:-1.0 466:-1.0 467:-1.0 468:-1.0 469:-1.0 470:-1.0 471:-1.0 473:-1.0 474:-1.0 476:-1.0 477:-1.0 479:-1.0 482:-1.0 483:-1.0 484:-0.33333333333333337 485:-1.0 486:-1.0 487:-1.0 488:-1.0 489:-1.0 490:-1.0 491:-1.0 492:-1.0 494:-1.0 495:-1.0 497:-1.0 498:-1.0 500:-1.0 501:-1.0 503:-1.0 506:-1.0 507:-1.0 508:0.33333333333333326 509:-1.0 513:-1.0 514:-1.0 515:-1.0 516:-1.0 522:-1.0 524:-1.0 525:-1.0 527:-1.0 531:-1.0 532:-0.33333333333333337 533:-1.0 537:-1.0 538:-1.0 539:-1.0 540:-1.0 546:-1.0 548:-1.0 549:-1.0 551:-1.0 556:-0.5 557:-1.0 561:-1.0 563:-1.0 564:-1.0 570:-1.0 572:-1.0 573:-1.0 575:-1.0 579:-1.0 580:-0.6666666666666667 581:-1.0 585:-1.0 587:-1.0 588:-1.0 594:-1.0 596:-1.0 597:-1.0 599:-1.0 604:0.4387776459917676 605:-0.581665743176796 606:-0.9343786295005807 607:-0.7674418604651163 608:-0.6777408637873754 609:-0.5354609929078014 610:-0.3152173913043478 611:-0.6363636363636364 612:-0.43999999999999995 613:-0.7762669962917181 614:-0.5662368112543963 615:-0.3903966597077244 616:-0.5010141987829615 617:-0.7234927234927235 618:-0.7567185289957568 619:-0.7624633431085044 620:-0.7855530474040632 621:-0.8327832783278328 
2.0 2:-1.0 3:0.1428571428571428 4:-1.0 5:-1.0 6:-1.0 7:-1.0 8:-1.0 9:-1.0 10:-1.0 11:-1.0 12:-1.0 13:-1.0 14:-1.0 15:-1.0 16:-1.0 17:-1.0 18:-1.0 19:-1.0 20:-1.0 21:-1.0 22:-1.0 23:-1.0 25:-1.0 26:-1.0 27:0.7142857142857142 28:-1.0 29:-1.0 30:-1.0 31:-1.0 32:-0.5 33:-1.0 34:-0.5 36:-1.0 37:-1.0 38:-1.0 39:-1.0 40:-1.0 41:-1.0 42:-1.0 43:-1.0 44:-1.0 45:-1.0 46:-1.0 49:-1.0 50:-1.0 51:1.0 52:-1.0 53:-1.0 54:-1.0 55:-1.0 56:-0.4285714285714286 57:-1.0 58:-0.7142857142857143 59:-0.6 60:-1.0 61:-1.0 62:-1.0 63:-1.0 64:-1.0 65:-1.0 66:-1.0 67:-1.0 68:-0.7142857142857143 69:-1.0 70:-0.7142857142857143 71:-1.0 73:-1.0 74:-1.0 75:1.0 76:-1.0 77:-1.0 78:-1.0 79:-1.0 80:-0.4285714285714286 81:-0.7142857142857143 82:-0.7142857142857143 83:-1.0 84:-1.0 85:-1.0 86:-1.0 87:-1.0 88:-1.0 89:-1.0 90:-1.0 91:-1.0 92:-1.0 93:-1.0 94:-1.0 95:-1.0 97:-1.0 98:-1.0 99:0.1428571428571428 100:-1.0 101:-1.0 102:-1.0 103:-1.0 104:-0.5 105:-1.0 106:-1.0 107:-1.0 108:-1.0 109:-1.0 110:-1.0 112:-1.0 113:-1.0 114:-1.0 115:-1.0 116:-1.0 117:-1.0 118:-1.0 121:-1.0 122:-1.0 123:0.33333333333333326 124:-1.0 125:-1.0 126:-1.0 127:-1.0 128:-0.5 129:-1.0 130:-1.0 131:-1.0 132:-1.0 133:-1.0 134:-1.0 136:-1.0 137:-1.0 138:-1.0 139:-1.0 140:-1.0 141:-1.0 142:-1.0 145:-1.0 146:0.1428571428571428 147:-0.23076923076923073 148:0.10344827586206895 149:0.03703703703703698 150:0.13043478260869557 152:-0.052631578947368474 153:-0.26315789473684215 155:0.30434782608695654 156:-0.13043478260869568 157:-0.2222222222222222 158:0.05263157894736836 159:-0.05882352941176472 161:-0.17647058823529416 163:-0.06666666666666665 164:0.11111111111111116 165:-0.23076923076923073 166:-0.11111111111111116 167:-0.2941176470588235 169:0.06666666666666665 170:0.1428571428571428 171:0.07692307692307687 172:-0.19999999999999996 175:0.19999999999999996 176:-0.11111111111111116 177:0.16666666666666674 178:0.2727272727272727 179:-0.16666666666666663 180:0.19999999999999996 181:-0.2222222222222222 182:0.2727272727272727 183:0.09090909090909083 184:0.33333333333333326 185:0.1428571428571428 186:0.09090909090909083 187:-0.11111111111111116 189:0.3999999999999999 190:-0.25 191:0.19999999999999996 192:-0.11111111111111116 193:-0.25 194:-0.23076923076923073 195:-0.11111111111111116 196:-0.1428571428571429 197:-0.11111111111111116 198:0.33333333333333326 199:-0.09090909090909094 200:0.33333333333333326 201:-0.11111111111111116 203:0.1428571428571428 204:0.1428571428571428 205:0.25 206:0.1428571428571428 207:0.1428571428571428 208:-0.33333333333333337 210:-0.05882352941176472 211:0.16666666666666674 212:-0.23809523809523814 213:-0.4285714285714286 214:0.19999999999999996 215:-0.4 216:0.1428571428571428 218:-0.23076923076923073 219:-0.4 220:-0.19999999999999996 221:0.1428571428571428 222:0.4285714285714286 224:0.11111111111111116 225:0.1428571428571428 226:0.33333333333333326 228:-0.19999999999999996 229:-0.11111111111111116 230:-0.1428571428571429 232:-0.19999999999999996 233:0.19999999999999996 234:-0.19999999999999996 235:-0.1428571428571429 238:-0.04761904761904767 239:0.05263157894736836 241:0.368421052631579 242:-0.19999999999999996 243:0.5 244:0.1428571428571428 245:0.19999999999999996 247:0.11111111111111116 248:0.1428571428571428 249:-0.07692307692307687 250:-0.16666666666666663 251:-0.09090909090909094 252:-0.19999999999999996 253:-0.09090909090909094 254:-0.6 255:-0.07692307692307687 257:0.23076923076923084 258:0.2727272727272727 259:-0.19999999999999996 260:0.4545454545454546 261:-0.11111111111111116 262:0.09090909090909083 263:0.19999999999999996 266:-1.0 267:0.7142857142857142 268:-0.7142857142857143 269:-0.7142857142857143 270:0.1428571428571428 271:-1.0 272:0.4285714285714286 273:-1.0 274:0.1428571428571428 275:0.1428571428571428 276:-1.0 277:0.7142857142857142 278:-0.4285714285714286 279:-0.7142857142857143 280:0.1428571428571428 281:-0.7142857142857143 282:0.7142857142857142 283:0.7142857142857142 284:-0.4285714285714286 285:-0.1428571428571429 286:-0.1428571428571429 287:0.1428571428571428 288:-0.4285714285714286 289:-0.1428571428571429 290:-0.1428571428571429 291:-0.1428571428571429 292:-0.1428571428571429 293:-0.4285714285714286 294:-0.7142857142857143 295:-0.7142857142857143 296:-1.0 297:0.4285714285714286 298:-0.7142857142857143 299:-0.1428571428571429 300:-1.0 301:-1.0 302:0.7142857142857142 303:-0.4285714285714286 304:-1.0 305:-0.4285714285714286 306:-0.4285714285714286 307:0.1428571428571428 308:0.4285714285714286 309:-0.1428571428571429 310:0.7142857142857142 311:-0.1428571428571429 312:-0.1428571428571429 313:0.1428571428571428 314:0.4285714285714286 315:0.4285714285714286 316:-0.1428571428571429 317:-0.7142857142857143 318:0.1428571428571428 319:0.4285714285714286 320:1.0 321:-0.4285714285714286 322:-0.7142857142857143 323:0.4285714285714286 324:-0.1428571428571429 325:1.0 326:-0.1428571428571429 327:-0.4285714285714286 328:-0.1428571428571429 329:-0.1428571428571429 330:1.0 331:0.1428571428571428 332:-0.4285714285714286 333:0.1428571428571428 334:-0.1428571428571429 335:1.0 336:-0.4285714285714286 337:-0.4285714285714286 338:-0.1428571428571429 339:0.7142857142857142 340:1.0 341:-0.1428571428571429 342:-0.7142857142857143 343:-0.1428571428571429 344:0.1428571428571428 345:1.0 346:-0.6037735849056604 347:-0.32352941176470584 348:-0.06542056074766356 349:0.24183006535947715 350:0.28395061728395055 351:0.352112676056338 352:0.07216494845360821 353:0.4181818181818182 354:-0.29729729729729726 355:0.894736842105263 356:0.7619047619047619 357:0.7464788732394365 362:-0.2857142857142857 363:0.1333333333333333 364:0.33333333333333326 365:-0.052631578947368474 366:-0.33333333333333337 367:0.16363636363636358 368:0.0714285714285714 369:-0.18918918918918914 378:-1.0 379:-1.0 380:0.33333333333333326 381:0.75 382:-0.33333333333333337 383:-1.0 384:0.75 385:0.5294117647058822 386:0.125 387:0.25 388:0.875 389:1.0 390:1.0 391:1.0 392:1.0 393:0.7 411:-1.0 412:1.0 413:-1.0 414:-1.0 415:-1.0 416:-1.0 417:-0.4285714285714286 418:-1.0 419:-0.7142857142857143 420:-0.7142857142857143 421:-1.0 422:-1.0 423:-1.0 424:-1.0 425:-1.0 426:-1.0 427:-1.0 428:-1.0 429:-0.7142857142857143 430:-1.0 431:-0.7142857142857143 432:-1.0 434:-1.0 435:-1.0 436:0.1428571428571428 437:-1.0 438:-1.0 439:-1.0 440:-1.0 441:-0.6 442:-1.0 443:-1.0 444:-1.0 445:-1.0 446:-1.0 447:-1.0 449:-1.0 450:-1.0 451:-1.0 452:-1.0 453:-1.0 454:-1.0 455:-1.0 456:-1.0 458:-1.0 459:-1.0 460:0.1428571428571428 461:-1.0 462:-1.0 463:-1.0 464:-1.0 466:-1.0 467:-1.0 468:-1.0 469:-1.0 470:-1.0 471:-1.0 473:-1.0 474:-1.0 476:-1.0 477:-1.0 479:-1.0 482:-1.0 483:-1.0 484:-0.33333333333333337 485:-1.0 486:-1.0 487:-1.0 488:-1.0 489:-1.0 490:-1.0 491:-1.0 492:-1.0 494:-1.0 495:-1.0 497:-1.0 498:-1.0 500:-1.0 501:-1.0 503:-1.0 506:-1.0 507:-1.0 508:0.33333333333333326 509:-1.0 513:-1.0 514:-1.0 515:-1.0 516:-1.0 522:-1.0 524:-1.0 525:-1.0 527:-1.0 531:-1.0 532:0.33333333333333326 533:-1.0 537:-1.0 538:-1.0 539:-1.0 540:-1.0 546:-1.0 548:-1.0 549:-1.0 551:-1.0 557:-1.0 561:-1.0 563:-1.0 564:-1.0 570:-1.0 572:-1.0 573:-1.0 575:-1.0 579:-1.0 580:-0.33333333333333337 581:-1.0 585:-1.0 587:-1.0 588:-1.0 594:-1.0 596:-1.0 597:-1.0 599:-1.0 604:0.2778946847226005 605:-0.5030034194565249 606:-0.9500580720092915 607:-0.7467700258397933 608:-0.6976744186046512 609:-0.7021276595744681 610:-0.5217391304347826 611:-0.5164410058027079 612:-0.5304347826086957 613:-0.750309023485785 614:-0.5169988276670574 615:-0.4196242171189979 616:-0.5212981744421907 617:-0.7401247401247402 618:-0.768033946251768 619:-0.7800586510263929 620:-0.7923250564334086 621:-0.8943894389438944 
2.0 2:1.0 3:-1.0 4:-1.0 5:-1.0 6:-0.5 7:-1.0 8:-1.0 9:-1.0 10:-1.0 11:-1.0 12:-1.0 13:-1.0 14:-1.0 15:-1.0 16:-1.0 17:-1.0 18:-1.0 19:-1.0 20:-1.0 21:-1.0 22:-1.0 23:-1.0 25:-1.0 26:-0.5 27:-0.7142857142857143 28:-1.0 29:-1.0 31:-1.0 32:-1.0 33:-1.0 34:-1.0 35:-1.0 36:-1.0 37:-1.0 38:-1.0 39:-1.0 40:-1.0 41:-1.0 42:-1.0 43:-1.0 44:-1.0 45:-1.0 46:-1.0 49:-1.0 50:-0.7142857142857143 51:-0.1428571428571429 52:-0.7142857142857143 53:-0.19999999999999996 55:-0.7142857142857143 56:-1.0 57:-1.0 58:-1.0 59:-1.0 60:-1.0 61:-1.0 62:-1.0 63:-1.0 64:-1.0 65:-1.0 66:-1.0 67:-0.7142857142857143 68:-1.0 69:-1.0 70:-1.0 71:-1.0 73:-1.0 74:-0.1428571428571429 75:-0.1428571428571429 76:-1.0 77:0.5 78:-0.1428571428571429 79:-0.7142857142857143 80:-1.0 81:-1.0 82:-1.0 83:-1.0 84:-1.0 85:-1.0 86:-1.0 87:-1.0 88:-1.0 89:-1.0 90:-1.0 91:-0.7142857142857143 92:-1.0 93:-1.0 94:-1.0 95:-1.0 97:-1.0 98:-1.0 99:-1.0 100:-1.0 101:-1.0 102:-1.0 103:-1.0 104:-1.0 105:-1.0 106:-1.0 107:-1.0 108:-1.0 109:-1.0 110:-1.0 112:-1.0 113:-1.0 114:-1.0 115:-1.0 116:-1.0 117:-1.0 118:-1.0 121:-1.0 122:-1.0 123:-0.6666666666666667 124:-1.0 125:-1.0 126:-1.0 127:-1.0 128:-1.0 129:-1.0 130:-1.0 131:-1.0 132:-1.0 133:-1.0 134:-1.0 136:-1.0 137:-1.0 138:-1.0 139:-1.0 140:-1.0 141:-1.0 142:-1.0 145:-1.0 146:0.9285714285714286 147:-0.15384615384615385 148:0.3793103448275863 149:0.40740740740740744 150:0.4782608695652173 151:0.5833333333333333 152:0.5789473684210527 153:-0.26315789473684215 155:-0.04347826086956519 156:0.30434782608695654 157:-0.5555555555555556 158:-0.368421052631579 159:-0.7647058823529411 160:0.22222222222222232 161:-0.7647058823529411 162:-0.1428571428571429 163:-0.33333333333333337 165:-0.07692307692307687 166:-0.2222222222222222 167:-0.17647058823529416 169:-0.19999999999999996 170:1.0 171:0.07692307692307687 172:0.3999999999999999 173:0.25 174:0.22222222222222232 176:1.0 177:0.33333333333333326 178:0.2727272727272727 179:0.16666666666666674 180:0.3999999999999999 181:-0.33333333333333337 182:0.2727272727272727 183:0.4545454545454546 184:0.11111111111111116 185:-0.1428571428571429 186:-0.2727272727272727 187:-0.5555555555555556 188:-0.5 189:0.19999999999999996 191:-0.19999999999999996 192:-0.11111111111111116 193:-0.75 194:0.07692307692307687 195:-0.33333333333333337 196:0.1428571428571428 197:-0.11111111111111116 198:0.11111111111111116 199:0.2727272727272727 200:0.33333333333333326 201:0.33333333333333326 202:0.5 203:0.4285714285714286 204:0.4285714285714286 206:0.4285714285714286 207:-0.1428571428571429 208:-0.6666666666666667 210:-0.05882352941176472 211:0.33333333333333326 212:-0.33333333333333337 213:-0.1428571428571429 214:0.3999999999999999 215:-0.19999999999999996 216:0.1428571428571428 218:-0.23076923076923073 221:-0.4285714285714286 222:0.1428571428571428 223:-0.33333333333333337 224:0.11111111111111116 225:-0.1428571428571429 228:-0.19999999999999996 229:-0.11111111111111116 230:-0.1428571428571429 231:-0.33333333333333337 232:0.19999999999999996 233:-0.19999999999999996 234:0.6000000000000001 235:-0.1428571428571429 238:0.19047619047619047 239:-0.1578947368421053 240:0.19999999999999996 241:-0.26315789473684215 242:-0.6 243:-0.16666666666666663 244:0.1428571428571428 245:0.19999999999999996 246:0.22222222222222232 247:-0.11111111111111116 249:0.8461538461538463 250:0.5 251:0.4545454545454546 252:-0.4 253:0.2727272727272727 254:-0.4 255:0.07692307692307687 256:0.19999999999999996 257:0.23076923076923084 258:0.09090909090909083 259:0.6000000000000001 260:-0.09090909090909094 261:-0.11111111111111116 262:-1.0 263:0.19999999999999996 265:-0.19999999999999996 266:-1.0 267:-1.0 268:-1.0 269:-1.0 270:-1.0 271:-1.0 272:-1.0 273:-1.0 274:-1.0 275:-1.0 276:-1.0 277:-0.7142857142857143 278:-1.0 279:-1.0 280:-1.0 281:-1.0 282:-1.0 283:-1.0 284:-1.0 285:-0.7142857142857143 286:-1.0 287:-1.0 288:-1.0 289:-1.0 290:-1.0 291:-0.7142857142857143 292:-0.1428571428571429 293:0.4285714285714286 294:-0.1428571428571429 295:-0.4285714285714286 296:-1.0 297:0.1428571428571428 298:-0.7142857142857143 299:-0.7142857142857143 300:-0.7142857142857143 301:-0.4285714285714286 302:-1.0 303:-0.7142857142857143 304:-1.0 305:-0.7142857142857143 306:-0.7142857142857143 307:-0.1428571428571429 308:-0.7142857142857143 309:-0.7142857142857143 310:-0.4285714285714286 311:-0.4285714285714286 312:0.7142857142857142 313:0.7142857142857142 314:-0.4285714285714286 315:-0.1428571428571429 316:-0.7142857142857143 317:-1.0 318:-1.0 319:-0.7142857142857143 320:-1.0 321:-0.4285714285714286 322:-1.0 323:-0.7142857142857143 324:-0.7142857142857143 325:-0.4285714285714286 326:-0.7142857142857143 327:-0.1428571428571429 328:-0.7142857142857143 329:-1.0 330:-0.7142857142857143 331:-0.7142857142857143 332:1.0 333:-0.1428571428571429 334:-0.4285714285714286 335:-0.4285714285714286 336:-1.0 337:-1.0 338:-0.4285714285714286 339:-0.7142857142857143 340:-1.0 341:-1.0 342:-0.7142857142857143 343:-0.7142857142857143 344:-1.0 345:-0.7142857142857143 346:-0.8113207547169812 347:0.11764705882352944 348:-0.009345794392523366 349:0.11111111111111116 350:0.382716049382716 351:0.46478873239436624 352:0.134020618556701 353:0.5272727272727273 354:0.8918918918918919 355:0.6842105263157894 356:0.7142857142857142 357:1.0 362:-0.1428571428571429 363:0.3999999999999999 364:-1.0 365:-0.1578947368421053 366:-0.1333333333333333 367:0.38181818181818183 368:-0.0714285714285714 369:-0.3513513513513513 378:0.33333333333333326 379:1.0 380:1.0 381:0.375 382:-1.0 383:1.0 384:1.0 385:1.0 386:0.875 387:1.0 388:0.875 389:0.33333333333333326 390:0.75 391:1.0 392:1.0 393:1.0 411:1.0 412:-0.4285714285714286 413:-1.0 414:-0.6 416:-1.0 417:-1.0 418:-1.0 419:-1.0 420:-1.0 421:-1.0 422:-1.0 423:-1.0 424:-1.0 425:-1.0 426:-1.0 427:-1.0 428:-0.7142857142857143 429:-1.0 430:-1.0 431:-1.0 432:-1.0 434:-1.0 435:-0.6 436:-0.4285714285714286 437:-1.0 438:0.33333333333333326 439:1.0 440:-1.0 441:-1.0 442:-1.0 443:-1.0 444:-1.0 445:-1.0 446:-1.0 447:-1.0 449:-1.0 450:-1.0 451:-1.0 452:-0.6 453:-1.0 454:-1.0 455:-1.0 456:-1.0 458:-1.0 459:-1.0 460:-0.7142857142857143 461:-1.0 462:-1.0 463:-1.0 464:-1.0 465:-1.0 466:-1.0 467:-1.0 468:-1.0 469:-1.0 470:-1.0 471:-1.0 473:-1.0 474:-1.0 476:-1.0 477:-1.0 479:-1.0 482:-1.0 483:-1.0 484:-1.0 485:-1.0 486:-1.0 487:-1.0 488:-1.0 489:-1.0 490:-1.0 491:-1.0 492:-1.0 494:-1.0 495:-1.0 497:-1.0 498:-1.0 500:-1.0 501:-1.0 503:-1.0 506:-1.0 507:-1.0 508:-1.0 509:-1.0 513:-1.0 514:-1.0 515:-1.0 516:-1.0 522:-1.0 524:-1.0 525:-1.0 527:-1.0 531:-1.0 532:-1.0 533:-1.0 537:-1.0 538:-1.0 539:-1.0 540:-1.0 546:-1.0 548:-1.0 549:-1.0 551:-1.0 556:-1.0 557:-1.0 561:-1.0 563:-1.0 564:-1.0 570:-1.0 572:-1.0 573:-1.0 575:-1.0 579:-1.0 580:-1.0 581:-1.0 585:-1.0 587:-1.0 588:-1.0 594:-1.0 596:-1.0 597:-1.0 599:-1.0 604:0.6197237145049888 605:0.16379406526715123 606:-0.5505226480836236 607:-0.9198966408268734 608:-0.8405315614617941 609:-0.8085106382978724 610:-0.7989130434782609 611:-0.8259187620889749 612:-0.8017391304347826 613:-0.6440049443757725 614:-0.7749120750293084 615:-0.7620041753653445 616:-0.7728194726166329 617:-0.8066528066528067 618:-0.8783592644978784 619:-0.844574780058651 620:-0.9142212189616252 621:-0.8107810781078107 
2.0 2:-1.0 3:-1.0 4:-0.7142857142857143 5:-1.0 6:-1.0 7:-1.0 8:-1.0 10:-1.0 11:-1.0 12:-1.0 13:-1.0 14:-1.0 15:-1.0 16:-1.0 17:-1.0 18:-1.0 19:-1.0 20:-1.0 21:-1.0 22:-1.0 23:-1.0 25:-1.0 26:-1.0 27:0.1428571428571428 28:-1.0 29:-1.0 30:-1.0 31:-1.0 32:0.5 33:-0.33333333333333337 34:0.5 35:-1.0 36:-1.0 37:-1.0 38:-1.0 39:-1.0 40:-1.0 41:-1.0 42:-1.0 43:-1.0 44:-1.0 45:-1.0 46:-1.0 49:-1.0 50:-1.0 51:0.7142857142857142 52:-0.7142857142857143 53:-1.0 54:-1.0 55:-1.0 56:0.4285714285714286 58:0.7142857142857142 59:-1.0 60:-1.0 61:-1.0 62:-1.0 63:-1.0 64:-1.0 65:-1.0 66:-1.0 67:-1.0 68:-1.0 69:-1.0 70:-1.0 71:-1.0 73:-1.0 74:-1.0 75:0.4285714285714286 76:-0.7142857142857143 77:-1.0 78:-1.0 79:-1.0 80:0.1428571428571428 81:-0.4285714285714286 82:0.1428571428571428 83:-1.0 84:-1.0 85:-1.0 86:-1.0 87:-1.0 88:-1.0 89:-1.0 90:-1.0 91:-1.0 92:-1.0 93:-1.0 94:-1.0 95:-1.0 97:-1.0 98:-1.0 99:-0.1428571428571429 100:-1.0 101:-1.0 102:-1.0 103:-1.0 107:-1.0 108:-1.0 109:-1.0 110:-1.0 112:-1.0 113:-1.0 114:-1.0 115:-1.0 116:-1.0 117:-1.0 118:-1.0 121:-1.0 122:-1.0 124:-1.0 125:-1.0 126:-1.0 127:-1.0 131:-1.0 132:-1.0 133:-1.0 134:-1.0 136:-1.0 137:-1.0 138:-1.0 139:-1.0 140:-1.0 141:-1.0 142:-1.0 145:-1.0 146:-0.1785714285714286 147:-0.23076923076923073 148:0.17241379310344818 149:-0.11111111111111116 150:0.21739130434782616 151:0.33333333333333326 152:0.05263157894736836 153:-0.26315789473684215 154:-0.09090909090909094 155:-0.13043478260869568 156:0.21739130434782616 157:-0.11111111111111116 158:0.05263157894736836 159:-0.17647058823529416 160:-0.2222222222222222 161:-0.2941176470588235 162:0.1428571428571428 163:-0.06666666666666665 164:0.22222222222222232 165:0.23076923076923084 166:-0.4444444444444444 167:-0.05882352941176472 168:-0.33333333333333337 169:-0.06666666666666665 170:0.2857142857142858 171:0.3846153846153846 173:-0.125 175:0.19999999999999996 176:0.5555555555555556 178:-0.09090909090909094 179:0.16666666666666674 181:-0.11111111111111116 182:0.2727272727272727 183:0.09090909090909083 184:0.33333333333333326 185:-0.1428571428571429 186:-0.09090909090909094 187:0.11111111111111116 188:-0.25 189:0.19999999999999996 192:0.11111111111111116 194:-0.07692307692307687 195:-0.11111111111111116 196:0.1428571428571428 197:0.11111111111111116 198:0.5555555555555556 199:0.09090909090909083 200:0.33333333333333326 201:-0.11111111111111116 203:-0.1428571428571429 204:0.1428571428571428 205:0.25 206:0.1428571428571428 207:0.1428571428571428 208:-0.33333333333333337 210:-0.47058823529411764 211:0.16666666666666674 212:-0.23809523809523814 213:0.2857142857142858 214:0.3999999999999999 216:0.4285714285714286 218:-0.07692307692307687 219:-0.4 220:-0.4 221:-0.4285714285714286 222:-0.1428571428571429 223:-0.33333333333333337 224:0.11111111111111116 225:0.1428571428571428 227:-0.25 228:-0.19999999999999996 229:-0.11111111111111116 230:0.1428571428571428 232:0.6000000000000001 233:0.19999999999999996 234:0.6000000000000001 235:-0.1428571428571429 236:-0.33333333333333337 238:0.38095238095238093 239:0.05263157894736836 241:-0.1578947368421053 242:-0.33333333333333337 243:-0.16666666666666663 245:0.19999999999999996 246:-0.11111111111111116 247:0.11111111111111116 248:0.2857142857142858 249:0.3846153846153846 250:0.33333333333333326 251:0.09090909090909083 252:-0.19999999999999996 253:-0.09090909090909094 254:-0.4 255:0.23076923076923084 257:0.3846153846153846 258:-0.2727272727272727 260:0.09090909090909083 261:-0.33333333333333337 262:-0.2727272727272727 264:0.25 266:-0.7142857142857143 267:-0.1428571428571429 268:0.4285714285714286 269:0.7142857142857142 270:1.0 271:-0.4285714285714286 272:0.1428571428571428 273:0.4285714285714286 274:0.1428571428571428 275:1.0 276:-0.4285714285714286 277:-0.1428571428571429 278:0.1428571428571428 279:0.7142857142857142 280:1.0 281:-0.7142857142857143 282:0.1428571428571428 283:0.1428571428571428 284:0.4285714285714286 285:1.0 286:-0.4285714285714286 287:0.4285714285714286 288:0.1428571428571428 289:-0.7142857142857143 290:1.0 291:-0.4285714285714286 292:0.4285714285714286 293:-0.1428571428571429 294:0.1428571428571428 295:0.7142857142857142 296:0.1428571428571428 297:-0.4285714285714286 298:0.4285714285714286 299:0.1428571428571428 300:1.0 301:-0.4285714285714286 302:-0.4285714285714286 303:-0.4285714285714286 304:-0.1428571428571429 305:1.0 306:-0.7142857142857143 307:0.4285714285714286 308:0.1428571428571428 309:0.1428571428571428 310:0.1428571428571428 311:-0.7142857142857143 312:0.7142857142857142 313:-0.4285714285714286 314:-0.7142857142857143 315:-0.4285714285714286 316:-0.1428571428571429 317:-0.1428571428571429 318:0.1428571428571428 319:0.7142857142857142 320:0.7142857142857142 321:-0.1428571428571429 322:-0.4285714285714286 323:-0.4285714285714286 324:0.1428571428571428 325:1.0 326:-0.4285714285714286 327:0.1428571428571428 328:0.4285714285714286 329:0.7142857142857142 330:0.7142857142857142 331:-0.7142857142857143 332:-0.1428571428571429 333:0.1428571428571428 334:0.1428571428571428 335:0.1428571428571428 336:-0.7142857142857143 337:0.4285714285714286 338:0.7142857142857142 339:0.1428571428571428 340:0.7142857142857142 341:-0.1428571428571429 342:0.1428571428571428 343:0.4285714285714286 344:0.1428571428571428 345:1.0 346:-0.6226415094339622 347:-0.47058823529411764 348:-0.15887850467289721 349:0.26797385620915026 350:0.308641975308642 351:0.43661971830985924 352:0.19587628865979378 353:0.49090909090909096 354:-0.6756756756756757 355:0.9736842105263157 356:0.9523809523809523 357:0.8028169014084507 362:-1.0 363:0.06666666666666665 365:0.05263157894736836 366:-0.7333333333333334 367:0.16363636363636358 368:0.1428571428571428 369:-0.18918918918918914 378:-1.0 379:-1.0 380:1.0 381:1.0 382:1.0 383:1.0 384:1.0 385:0.5294117647058822 386:-0.5 387:0.5 388:0.875 389:1.0 390:1.0 391:0.8823529411764706 392:1.0 393:0.7 411:-1.0 412:0.1428571428571428 413:-0.4285714285714286 414:-1.0 415:-1.0 416:-1.0 417:0.1428571428571428 419:-0.1428571428571429 420:-1.0 421:-1.0 422:-1.0 423:-1.0 424:-1.0 425:-1.0 426:-1.0 427:-1.0 428:-1.0 429:-1.0 430:-1.0 431:-1.0 432:-1.0 434:-1.0 435:-1.0 436:0.1428571428571428 437:-1.0 438:-1.0 439:-1.0 440:-1.0 441:0.19999999999999996 442:-0.33333333333333337 443:0.5 444:-1.0 445:-1.0 446:-1.0 447:-1.0 449:-1.0 450:-1.0 451:-1.0 452:-1.0 453:-1.0 454:-1.0 455:-1.0 456:-1.0 458:-1.0 459:-1.0 460:-0.4285714285714286 461:-1.0 462:-1.0 463:-1.0 464:-1.0 465:1.0 466:-1.0 467:-0.19999999999999996 468:-1.0 469:-1.0 470:-1.0 471:-1.0 473:-1.0 474:-1.0 476:-1.0 477:-1.0 479:-1.0 482:-1.0 483:-1.0 484:-0.33333333333333337 485:-1.0 486:-1.0 487:-1.0 488:-1.0 489:0.33333333333333326 490:-1.0 491:1.0 492:-1.0 494:-1.0 495:-1.0 497:-1.0 498:-1.0 500:-1.0 501:-1.0 503:-1.0 506:-1.0 507:-1.0 508:0.33333333333333326 509:-1.0 513:1.0 514:-1.0 515:1.0 516:-1.0 522:-1.0 524:-1.0 525:-1.0 527:-1.0 531:-1.0 532:0.33333333333333326 533:-1.0 537:1.0 538:-1.0 539:1.0 540:-1.0 546:-1.0 548:-1.0 549:-1.0 551:-1.0 556:-0.5 557:-1.0 561:1.0 563:1.0 564:-1.0 570:-1.0 572:-1.0 573:-1.0 575:-1.0 579:-1.0 580:-0.33333333333333337 581:-1.0 587:1.0 588:-1.0 594:-1.0 596:-1.0 597:-1.0 599:-1.0 604:0.5003837298541827 605:-0.49215085690505667 606:-0.9105691056910569 607:-0.6744186046511628 608:-0.5647840531561461 609:-0.5992907801418439 610:-0.26086956521739135 611:-0.38491295938104453 612:-0.3913043478260869 613:-0.7762669962917181 614:-0.5029308323563892 615:-0.11064718162839249 616:-0.4117647058823529 617:-0.6548856548856549 618:-0.5275813295615276 619:-0.5777126099706744 620:-0.672686230248307 621:-0.7601760176017602 
1.016204833981767 2:1.0 3:-0.7142857142857143 4:-1.0 5:-1.0 6:-0.5 7:-1.0 8:-1.0 9:-1.0 10:-1.0 11:-1.0 12:-1.0 13:-1.0 14:-1.0 15:-1.0 16:-1.0 17:-1.0 18:-1.0 19:-1.0 20:-1.0 21:-1.0 22:-1.0 23:-1.0 25:-1.0 26:-0.5 27:-0.4285714285714286 28:-1.0 29:1.0 32:-1.0 33:-1.0 34:-1.0 35:-1.0 36:-1.0 37:-1.0 38:-1.0 39:-1.0 40:-1.0 41:-1.0 42:-1.0 43:-1.0 44:-1.0 45:-1.0 46:-1.0 49:-1.0 50:-0.4285714285714286 51:0.4285714285714286 52:-0.7142857142857143 53:-0.6 54:-0.5 55:-0.7142857142857143 56:-1.0 57:-1.0 58:-1.0 59:-1.0 60:-1.0 61:-1.0 62:-1.0 63:-1.0 64:-1.0 65:-1.0 66:-1.0 67:-1.0 68:-1.0 69:-1.0 70:-1.0 71:-1.0 73:-1.0 74:-0.4285714285714286 75:0.4285714285714286 76:-1.0 78:-0.4285714285714286 79:-0.7142857142857143 80:-0.7142857142857143 81:-1.0 82:-1.0 83:-1.0 84:-1.0 85:-1.0 86:-1.0 87:-1.0 88:-1.0 89:-1.0 90:-1.0 91:-1.0 92:-1.0 93:-1.0 94:-1.0 95:-1.0 97:-1.0 98:-0.5 99:-0.4285714285714286 100:-1.0 101:1.0 103:-1.0 104:-1.0 105:-1.0 106:-1.0 107:-1.0 108:-1.0 109:-1.0 110:-1.0 112:-1.0 113:-1.0 114:-1.0 115:-1.0 116:-1.0 117:-1.0 118:-1.0 121:-1.0 122:-0.5 123:-0.6666666666666667 124:-1.0 125:-1.0 126:1.0 127:-1.0 128:-1.0 129:-1.0 130:-1.0 131:-1.0 132:-1.0 133:-1.0 134:-1.0 136:-1.0 137:-1.0 138:-1.0 139:-1.0 140:-1.0 141:-1.0 142:-1.0 145:-1.0 146:0.8571428571428572 147:0.3846153846153846 148:-0.31034482758620685 149:0.7037037037037037 150:0.3913043478260869 151:0.25 152:-0.368421052631579 153:0.7894736842105263 154:-0.36363636363636365 155:0.04347826086956519 156:0.13043478260869557 157:-0.2222222222222222 158:0.368421052631579 159:-0.05882352941176472 160:0.6666666666666667 161:0.05882352941176472 162:-0.1428571428571429 163:0.19999999999999996 164:-0.33333333333333337 165:0.3846153846153846 166:0.5555555555555556 167:0.05882352941176472 168:-0.6666666666666667 169:-0.19999999999999996 170:-0.2857142857142857 171:-1.0 172:-0.19999999999999996 173:-0.25 174:0.22222222222222232 176:-0.33333333333333337 178:-0.09090909090909094 179:-0.5 180:0.19999999999999996 182:0.8181818181818181 183:-0.2727272727272727 184:0.33333333333333326 185:0.2857142857142858 186:0.6363636363636365 187:-0.5555555555555556 188:0.25 189:-0.19999999999999996 190:0.5 191:0.8 192:0.33333333333333326 193:0.5 194:-0.3846153846153846 195:0.33333333333333326 196:1.0 197:-0.33333333333333337 198:0.7777777777777777 199:-0.09090909090909094 200:0.11111111111111116 201:-0.5555555555555556 203:-0.4285714285714286 204:-0.4285714285714286 206:-0.1428571428571429 207:0.1428571428571428 208:-0.33333333333333337 210:-0.11764705882352944 211:0.33333333333333326 212:-0.5238095238095238 213:-0.2857142857142857 214:0.3999999999999999 216:0.1428571428571428 217:0.6666666666666667 218:-0.23076923076923073 219:0.19999999999999996 220:0.19999999999999996 221:0.1428571428571428 222:0.4285714285714286 223:-0.33333333333333337 224:0.11111111111111116 225:0.1428571428571428 228:-0.19999999999999996 229:-0.11111111111111116 230:-0.1428571428571429 232:-0.19999999999999996 233:-0.6 234:-0.19999999999999996 235:-0.4285714285714286 237:-0.33333333333333337 238:0.19047619047619047 239:-0.1578947368421053 240:0.7 241:0.368421052631579 242:-0.33333333333333337 243:-0.16666666666666663 244:0.1428571428571428 245:-0.6 247:-0.4444444444444444 248:-0.2857142857142857 249:-0.07692307692307687 250:-0.33333333333333337 251:0.09090909090909083 252:-0.19999999999999996 253:-0.09090909090909094 254:-0.4 255:0.23076923076923084 257:0.3846153846153846 258:-0.09090909090909094 259:-0.4 260:0.4545454545454546 261:0.33333333333333326 262:0.4545454545454546 263:0.3999999999999999 265:0.3999999999999999 266:-1.0 267:-1.0 268:-1.0 269:-1.0 270:-1.0 271:-1.0 272:-0.4285714285714286 273:0.4285714285714286 274:-1.0 275:-0.1428571428571429 276:-1.0 277:-0.4285714285714286 278:0.1428571428571428 279:0.1428571428571428 280:0.4285714285714286 281:-0.7142857142857143 282:-0.7142857142857143 283:-1.0 284:-0.4285714285714286 285:-0.7142857142857143 286:-0.7142857142857143 287:-0.7142857142857143 288:-0.4285714285714286 289:-1.0 290:-0.1428571428571429 291:-1.0 292:-0.7142857142857143 293:0.4285714285714286 294:-1.0 295:0.1428571428571428 296:-0.1428571428571429 297:-0.1428571428571429 298:0.4285714285714286 299:0.1428571428571428 300:-0.1428571428571429 301:0.4285714285714286 302:-0.7142857142857143 303:0.1428571428571428 304:-0.4285714285714286 305:0.1428571428571428 306:-0.7142857142857143 307:-0.4285714285714286 308:0.4285714285714286 309:-0.4285714285714286 310:0.1428571428571428 311:-1.0 312:-1.0 313:-1.0 314:-0.7142857142857143 315:-0.7142857142857143 316:-0.4285714285714286 317:0.4285714285714286 318:-0.7142857142857143 319:-0.1428571428571429 320:-0.1428571428571429 321:-0.7142857142857143 322:0.4285714285714286 323:-0.7142857142857143 324:-0.7142857142857143 325:-0.1428571428571429 326:-0.7142857142857143 327:-1.0 328:-1.0 329:-1.0 330:-0.4285714285714286 331:-0.4285714285714286 332:-1.0 333:-0.1428571428571429 334:-1.0 335:-0.7142857142857143 336:-1.0 337:-1.0 338:-1.0 339:-1.0 340:-1.0 341:-1.0 342:-1.0 343:-1.0 344:-1.0 345:-1.0 346:-0.7830188679245282 347:-0.07352941176470584 348:-0.03738317757009346 349:0.21568627450980382 350:0.18518518518518512 351:0.21126760563380276 352:0.134020618556701 353:0.38181818181818183 354:0.45945945945945943 355:0.8157894736842106 356:0.9047619047619047 357:0.8873239436619718 362:-0.1428571428571429 363:0.2666666666666666 364:-0.6666666666666667 365:-0.052631578947368474 366:-0.1333333333333333 367:0.19999999999999996 368:0.0714285714285714 369:-0.3513513513513513 378:-1.0 379:-1.0 380:-0.33333333333333337 381:0.375 382:-0.33333333333333337 383:1.0 384:0.875 385:0.6470588235294117 386:0.875 387:1.0 388:1.0 389:1.0 390:1.0 391:1.0 392:1.0 393:1.0 411:1.0 412:0.4285714285714286 413:-0.7142857142857143 414:-0.19999999999999996 415:0.33333333333333326 416:-0.4285714285714286 417:-1.0 418:-1.0 419:-0.7142857142857143 420:-1.0 421:-1.0 422:-1.0 423:-1.0 424:-1.0 425:-1.0 426:-1.0 427:-1.0 428:-1.0 429:-1.0 430:-1.0 431:-1.0 432:-1.0 434:-1.0 435:-0.6 436:-0.4285714285714286 437:-1.0 438:-0.33333333333333337 440:-1.0 441:-1.0 442:-1.0 443:-1.0 444:-1.0 445:-1.0 446:-1.0 447:-1.0 449:-1.0 450:-1.0 451:-1.0 452:-1.0 453:-1.0 454:-1.0 455:-1.0 456:-1.0 458:-1.0 459:-0.33333333333333337 460:-0.7142857142857143 461:-1.0 462:-1.0 463:-1.0 464:-1.0 465:-1.0 466:-1.0 467:-1.0 468:-1.0 469:-1.0 470:-1.0 471:-1.0 473:-1.0 474:-1.0 476:-1.0 477:-1.0 479:-1.0 482:-1.0 484:-0.6666666666666667 485:-1.0 486:-1.0 487:-1.0 488:-1.0 489:-1.0 490:-1.0 491:-1.0 492:-1.0 494:-1.0 495:-1.0 497:-1.0 498:-1.0 500:-1.0 501:-1.0 503:-1.0 506:-1.0 507:-1.0 508:-1.0 509:-1.0 513:-1.0 514:-1.0 515:-1.0 516:-1.0 522:-1.0 524:-1.0 525:-1.0 527:-1.0 531:-1.0 532:-1.0 533:-1.0 537:-1.0 538:-1.0 539:-1.0 540:-1.0 546:-1.0 548:-1.0 549:-1.0 551:-1.0 556:-1.0 557:-1.0 561:-1.0 563:-1.0 564:-1.0 570:-1.0 572:-1.0 573:-1.0 575:-1.0 579:-1.0 580:-1.0 581:-1.0 585:-1.0 587:-1.0 588:-1.0 594:-1.0 596:-1.0 597:-1.0 599:-1.0 604:0.6154575414202519 605:0.6344539409549133 606:-0.562137049941928 607:-0.8656330749354005 608:-0.8338870431893688 609:-0.6453900709219857 610:-0.6739130434782609 611:-0.7524177949709865 612:-0.7530434782608696 613:-0.8417799752781212 614:-0.7819460726846424 615:-0.6200417536534446 616:-0.5740365111561866 617:-0.6735966735966736 618:-0.768033946251768 619:-0.782991202346041 620:-0.8848758465011287 621:-0.8943894389438944 
1.4598871933986748 2:1.0 3:-1.0 4:-1.0 5:-1.0 6:-0.5 7:-0.7142857142857143 8:-1.0 9:-1.0 10:-1.0 11:-1.0 12:-1.0 13:-1.0 14:-1.0 15:-1.0 16:-1.0 17:-1.0 18:-1.0 19:-1.0 20:-1.0 21:-1.0 22:-1.0 23:-1.0 25:-1.0 26:-0.5 27:-0.7142857142857143 28:-1.0 29:-1.0 32:-1.0 33:-1.0 34:-1.0 35:-1.0 36:-1.0 37:-1.0 38:-1.0 39:-1.0 40:-1.0 41:-1.0 42:-1.0 43:-1.0 44:-1.0 45:-1.0 46:-1.0 49:-1.0 50:-0.4285714285714286 51:-0.4285714285714286 52:-0.4285714285714286 53:-0.19999999999999996 54:-0.5 55:-0.1428571428571429 56:-1.0 57:-1.0 58:-1.0 59:-1.0 60:-1.0 61:-1.0 62:-1.0 63:-1.0 64:-1.0 65:-1.0 66:-1.0 67:-1.0 68:-1.0 69:-1.0 70:-1.0 71:-1.0 73:-1.0 74:0.1428571428571428 75:-0.4285714285714286 76:-0.7142857142857143 77:-1.0 78:-0.7142857142857143 79:-0.4285714285714286 80:-1.0 81:-1.0 82:-1.0 83:-1.0 84:-1.0 85:-1.0 86:-1.0 87:-1.0 88:-1.0 89:-1.0 90:-1.0 91:-1.0 92:-1.0 93:-1.0 94:-1.0 95:-1.0 97:-1.0 98:-1.0 99:-1.0 100:-1.0 101:-1.0 102:-1.0 103:-1.0 104:-1.0 105:-1.0 106:-1.0 107:-1.0 108:-1.0 109:-1.0 110:-1.0 112:-1.0 113:-1.0 114:-1.0 115:-1.0 116:-1.0 117:-1.0 118:-1.0 121:-1.0 122:-1.0 123:-1.0 124:-1.0 125:-1.0 126:-1.0 127:-1.0 128:-1.0 129:-1.0 130:-1.0 131:-1.0 132:-1.0 133:-1.0 134:-1.0 136:-1.0 137:-1.0 138:-1.0 139:-1.0 140:-1.0 141:-1.0 142:-1.0 145:-1.0 146:0.9285714285714286 147:0.46153846153846145 148:0.10344827586206895 149:0.8518518518518519 150:-0.21739130434782605 151:-0.16666666666666663 152:-0.4736842105263158 153:0.368421052631579 154:-0.4545454545454546 155:-0.13043478260869568 156:-0.3913043478260869 157:0.4444444444444444 158:0.26315789473684204 159:0.2941176470588236 160:0.22222222222222232 161:-0.2941176470588235 163:0.6000000000000001 164:-0.6666666666666667 165:0.3846153846153846 166:0.22222222222222232 167:-0.4117647058823529 168:-0.5 169:-0.19999999999999996 170:-0.5714285714285714 171:-0.3846153846153846 173:-0.125 174:0.22222222222222232 175:0.19999999999999996 176:0.33333333333333326 178:-0.2727272727272727 179:0.33333333333333326 181:0.11111111111111116 182:-0.09090909090909094 183:0.4545454545454546 184:0.5555555555555556 185:0.4285714285714286 186:-0.2727272727272727 187:0.11111111111111116 188:-0.25 190:-0.5 192:0.5555555555555556 193:0.25 194:0.07692307692307687 195:0.5555555555555556 196:-0.4285714285714286 197:0.33333333333333326 198:0.33333333333333326 199:-0.09090909090909094 200:0.5555555555555556 201:0.33333333333333326 202:0.25 203:-1.0 204:-0.1428571428571429 206:0.4285714285714286 207:-0.1428571428571429 208:-0.33333333333333337 209:-0.25 211:0.33333333333333326 212:-0.33333333333333337 213:-0.1428571428571429 214:0.19999999999999996 215:-0.4 216:-0.1428571428571429 218:-0.3846153846153846 220:-0.19999999999999996 221:0.1428571428571428 222:0.4285714285714286 224:0.11111111111111116 225:-0.1428571428571429 226:0.33333333333333326 227:0.25 228:-0.6 229:0.11111111111111116 230:-0.1428571428571429 231:-0.33333333333333337 232:-0.19999999999999996 233:-0.19999999999999996 234:-0.19999999999999996 235:-0.1428571428571429 238:0.09523809523809534 239:-0.1578947368421053 240:0.10000000000000009 241:-0.052631578947368474 242:-0.19999999999999996 243:0.5 244:0.2857142857142858 246:0.22222222222222232 247:-0.11111111111111116 248:0.1428571428571428 249:-0.07692307692307687 250:-0.33333333333333337 251:-0.09090909090909094 252:-0.19999999999999996 253:0.09090909090909083 254:-0.6 255:-0.23076923076923073 256:0.6000000000000001 257:-0.07692307692307687 258:0.2727272727272727 259:0.19999999999999996 260:0.4545454545454546 261:0.11111111111111116 262:0.2727272727272727 266:-1.0 267:-1.0 268:-1.0 269:-1.0 270:-1.0 271:-1.0 272:-1.0 273:-1.0 274:-1.0 275:-1.0 276:-1.0 277:-1.0 278:-1.0 279:-1.0 280:-1.0 281:-1.0 282:-1.0 283:-1.0 284:-1.0 285:-1.0 286:-0.7142857142857143 287:-0.7142857142857143 288:0.1428571428571428 289:-0.7142857142857143 290:0.1428571428571428 291:-0.1428571428571429 292:0.4285714285714286 293:-0.1428571428571429 294:-0.4285714285714286 295:-0.1428571428571429 296:-0.4285714285714286 297:-0.1428571428571429 298:-0.4285714285714286 299:-0.1428571428571429 300:-0.1428571428571429 301:-0.1428571428571429 302:-0.4285714285714286 303:-0.4285714285714286 304:-0.7142857142857143 305:-0.4285714285714286 306:-0.7142857142857143 307:-0.7142857142857143 308:-0.1428571428571429 309:-0.1428571428571429 310:-0.4285714285714286 311:-1.0 312:-1.0 313:-0.7142857142857143 314:-0.7142857142857143 315:-0.7142857142857143 316:-0.4285714285714286 317:0.4285714285714286 318:-0.4285714285714286 319:0.1428571428571428 320:-0.4285714285714286 321:-0.7142857142857143 322:0.4285714285714286 323:-0.4285714285714286 324:-0.4285714285714286 325:-0.1428571428571429 326:-1.0 327:-1.0 328:-1.0 329:-1.0 330:-1.0 331:-1.0 332:-1.0 333:-1.0 334:-1.0 335:-1.0 336:-1.0 337:-1.0 338:-1.0 339:-1.0 340:-1.0 341:-1.0 342:-1.0 343:-1.0 344:-1.0 345:-1.0 346:-0.5660377358490566 347:-0.1029411764705882 348:0.028037383177569986 349:0.3594771241830066 350:0.308641975308642 351:0.23943661971830976 352:0.09278350515463907 353:0.49090909090909096 354:0.18918918918918926 355:0.736842105263158 356:0.8095238095238095 357:0.5211267605633803 362:-0.7142857142857143 363:0.33333333333333326 365:0.10526315789473695 366:-0.4666666666666667 367:0.19999999999999996 368:0.0714285714285714 369:0.08108108108108114 378:-1.0 379:-0.33333333333333337 380:-0.33333333333333337 381:0.25 382:-0.33333333333333337 383:-0.33333333333333337 384:0.75 385:0.17647058823529416 386:0.25 387:1.0 388:0.875 389:0.8888888888888888 390:1.0 391:1.0 392:1.0 393:0.19999999999999996 411:1.0 412:-0.4285714285714286 413:-0.4285714285714286 414:-0.6 415:-0.33333333333333337 416:-0.1428571428571429 417:-1.0 418:-1.0 419:-1.0 420:-1.0 421:-1.0 422:-1.0 423:-1.0 424:-1.0 425:-1.0 426:-1.0 427:-1.0 428:-1.0 429:-1.0 430:-1.0 431:-1.0 432:-1.0 434:-1.0 435:-0.6 436:-0.7142857142857143 437:-0.5 438:-0.33333333333333337 440:-0.6 441:-1.0 442:-1.0 443:-1.0 444:-1.0 445:-1.0 446:-1.0 447:-1.0 449:-1.0 450:-1.0 451:-1.0 452:-1.0 453:-1.0 454:-1.0 455:-1.0 456:-1.0 458:-1.0 459:-0.33333333333333337 460:-1.0 461:-1.0 462:-1.0 463:-1.0 464:-1.0 465:-1.0 466:-1.0 467:-1.0 468:-1.0 469:-1.0 470:-1.0 471:-1.0 473:-1.0 474:-1.0 476:-1.0 477:-1.0 479:-1.0 482:-1.0 483:-1.0 484:-1.0 485:-1.0 486:-1.0 487:-1.0 488:-1.0 489:-1.0 490:-1.0 491:-1.0 492:-1.0 494:-1.0 495:-1.0 497:-1.0 498:-1.0 500:-1.0 501:-1.0 503:-1.0 506:-1.0 507:-1.0 508:-1.0 509:-1.0 513:-1.0 514:-1.0 515:-1.0 516:-1.0 522:-1.0 524:-1.0 525:-1.0 527:-1.0 531:-1.0 532:-1.0 533:-1.0 537:-1.0 538:-1.0 539:-1.0 540:-1.0 546:-1.0 548:-1.0 549:-1.0 551:-1.0 556:-1.0 557:-1.0 561:-1.0 563:-1.0 564:-1.0 570:-1.0 572:-1.0 573:-1.0 575:-1.0 579:-1.0 580:-1.0 581:-1.0 585:-1.0 587:-1.0 588:-1.0 594:-1.0 596:-1.0 597:-1.0 599:-1.0 604:0.40768898695318523 605:-0.017041269675244997 606:0.38327526132404177 607:-0.8062015503875969 608:-0.7740863787375415 609:-0.574468085106383 610:-0.5760869565217391 611:-0.6170212765957447 612:-0.6243478260869566 613:-0.7478368355995055 614:-0.6647127784290738 615:-0.5991649269311065 616:-0.6795131845841784 617:-0.7359667359667359 618:-0.7821782178217822 619:-0.8093841642228738 620:-0.8397291196388261 621:-0.8943894389438944 
0.10400432875959789 2:-1.0 3:0.7142857142857142 4:-1.0 5:-1.0 6:1.0 7:-1.0 8:0.19999999999999996 9:1.0 10:-1.0 11:-1.0 12:-1.0 13:-1.0 14:-1.0 15:-1.0 16:-1.0 17:-1.0 18:-1.0 19:-1.0 20:-1.0 21:-1.0 22:-1.0 23:-1.0 25:-1.0 26:-1.0 27:-0.7142857142857143 28:-1.0 29:-1.0 31:-1.0 32:-1.0 33:-1.0 34:-1.0 35:-1.0 36:-1.0 37:-1.0 38:-1.0 39:-1.0 40:-1.0 41:-1.0 42:-1.0 43:-1.0 44:-1.0 45:-1.0 46:-1.0 49:-1.0 50:-1.0 51:-0.4285714285714286 52:-0.7142857142857143 53:-0.6 55:-1.0 56:-0.7142857142857143 57:-1.0 58:-0.7142857142857143 59:-1.0 60:-1.0 61:-1.0 62:-1.0 63:-1.0 64:-1.0 65:-1.0 66:-1.0 67:-1.0 68:-1.0 69:-1.0 70:-1.0 71:-1.0 73:-1.0 74:-1.0 75:-0.4285714285714286 76:-0.7142857142857143 77:0.5 78:1.0 79:-0.7142857142857143 80:-0.7142857142857143 81:-0.7142857142857143 82:-1.0 83:-1.0 84:-1.0 85:-1.0 86:-1.0 87:-1.0 88:-1.0 89:-0.7142857142857143 90:-0.33333333333333337 91:-0.7142857142857143 92:-1.0 93:-1.0 94:-0.7142857142857143 95:-1.0 97:-1.0 98:-1.0 99:-1.0 100:-1.0 101:-1.0 103:-1.0 104:-1.0 105:-1.0 106:-1.0 107:-1.0 108:-1.0 109:-1.0 110:-1.0 112:-1.0 113:-1.0 114:-1.0 115:-1.0 116:-1.0 117:-1.0 118:-1.0 121:-1.0 122:-1.0 123:-1.0 124:-1.0 125:-1.0 126:-1.0 127:-1.0 128:-1.0 129:-1.0 130:-1.0 131:-1.0 132:-1.0 133:-1.0 134:-1.0 136:-1.0 137:-1.0 138:-1.0 139:-1.0 140:-1.0 141:-1.0 142:-1.0 145:-1.0 146:0.1785714285714286 147:-0.23076923076923073 148:0.034482758620689724 149:0.18518518518518512 150:0.6521739130434783 152:0.6842105263157894 153:0.05263157894736836 154:0.36363636363636354 155:-0.3913043478260869 156:-0.04347826086956519 157:-0.11111111111111116 158:0.26315789473684204 159:-0.17647058823529416 160:0.11111111111111116 161:-0.4117647058823529 162:-0.7142857142857143 163:-0.4666666666666667 164:-0.11111111111111116 165:0.07692307692307687 166:-0.2222222222222222 167:0.05882352941176472 169:0.06666666666666665 170:-0.1428571428571429 171:-0.07692307692307687 172:0.19999999999999996 173:0.25 174:0.11111111111111116 175:-0.4 176:0.7777777777777777 177:0.5 178:-0.2727272727272727 179:0.16666666666666674 180:0.3999999999999999 181:-0.2222222222222222 182:0.09090909090909083 183:0.2727272727272727 184:0.11111111111111116 185:0.1428571428571428 186:-0.09090909090909094 187:0.11111111111111116 189:0.3999999999999999 190:0.25 191:0.6000000000000001 192:0.11111111111111116 194:-0.07692307692307687 195:0.11111111111111116 196:0.1428571428571428 197:-0.11111111111111116 198:0.11111111111111116 199:-0.2727272727272727 200:0.11111111111111116 201:0.11111111111111116 203:0.1428571428571428 204:-0.1428571428571429 206:0.1428571428571428 207:-0.1428571428571429 208:-0.33333333333333337 210:-0.7647058823529411 211:0.8333333333333333 212:0.1428571428571428 213:-0.4285714285714286 214:0.19999999999999996 215:-0.6 216:0.1428571428571428 217:0.6666666666666667 218:0.5384615384615385 219:-0.8 220:-0.19999999999999996 221:0.1428571428571428 222:0.7142857142857142 223:0.6666666666666667 224:-0.33333333333333337 225:-0.1428571428571429 226:-0.33333333333333337 227:-0.5 228:-0.19999999999999996 229:-0.33333333333333337 230:0.1428571428571428 231:-1.0 232:1.0 233:0.19999999999999996 234:-1.0 235:-0.7142857142857143 236:0.33333333333333326 237:-0.33333333333333337 238:1.0 239:-0.6842105263157895 241:0.05263157894736836 242:-0.7333333333333334 243:1.0 244:-0.2857142857142857 245:-0.8 246:-1.0 247:1.0 248:0.4285714285714286 249:-0.07692307692307687 250:-0.8333333333333334 251:-1.0 252:0.19999999999999996 253:0.4545454545454546 254:1.0 255:1.0 256:0.19999999999999996 257:0.8461538461538463 258:-0.2727272727272727 259:1.0 260:-0.8181818181818181 261:-0.33333333333333337 262:1.0 263:1.0 264:-1.0 266:-1.0 267:-0.4285714285714286 268:-1.0 269:-1.0 270:-1.0 271:-1.0 272:-0.1428571428571429 273:-0.7142857142857143 274:-1.0 275:-0.1428571428571429 276:-1.0 277:-0.4285714285714286 278:-1.0 279:-1.0 280:-0.7142857142857143 281:-0.4285714285714286 282:-0.7142857142857143 283:-1.0 284:-1.0 285:-0.4285714285714286 286:-1.0 287:-0.1428571428571429 288:-1.0 289:-1.0 290:-0.7142857142857143 291:0.1428571428571428 292:-0.7142857142857143 293:-0.4285714285714286 294:-0.7142857142857143 295:0.4285714285714286 296:-1.0 297:-1.0 298:-1.0 299:-1.0 300:-1.0 301:-0.1428571428571429 302:-1.0 303:-0.7142857142857143 304:-1.0 305:-0.4285714285714286 306:-0.1428571428571429 307:0.1428571428571428 308:-0.7142857142857143 309:-1.0 310:-0.4285714285714286 311:-0.4285714285714286 312:0.7142857142857142 313:-0.4285714285714286 314:-0.4285714285714286 315:-0.1428571428571429 316:-0.7142857142857143 317:-0.1428571428571429 318:-0.7142857142857143 319:-1.0 320:-0.7142857142857143 321:-0.4285714285714286 322:-1.0 323:-0.7142857142857143 324:-0.4285714285714286 325:-0.4285714285714286 326:-0.4285714285714286 327:-0.1428571428571429 328:-0.4285714285714286 329:0.4285714285714286 330:-0.7142857142857143 331:-0.4285714285714286 332:0.7142857142857142 333:-0.1428571428571429 334:-0.1428571428571429 335:-0.4285714285714286 336:-0.7142857142857143 337:-0.7142857142857143 338:-1.0 339:-0.4285714285714286 340:-0.7142857142857143 341:-1.0 342:-0.4285714285714286 343:-1.0 344:-1.0 345:-1.0 346:-0.4811320754716981 347:-0.13235294117647056 348:0.07476635514018692 349:0.1633986928104576 350:0.3580246913580247 351:0.352112676056338 352:0.15463917525773185 353:0.49090909090909096 354:0.08108108108108114 355:0.736842105263158 356:0.2857142857142858 357:0.6338028169014085 362:-0.1428571428571429 363:0.19999999999999996 365:-0.21052631578947367 366:-0.06666666666666665 367:0.19999999999999996 368:0.1428571428571428 369:-0.2432432432432432 378:-1.0 379:-1.0 380:-0.33333333333333337 381:0.5 382:-1.0 383:-1.0 384:0.5 385:0.6470588235294117 386:0.5 388:0.75 389:0.7777777777777777 390:0.625 391:0.5294117647058822 392:0.75 393:0.6000000000000001 411:-1.0 412:1.0 413:-0.7142857142857143 414:-0.6 415:1.0 416:-0.7142857142857143 417:0.1428571428571428 419:-1.0 420:-1.0 421:-1.0 422:-1.0 423:-1.0 424:-1.0 425:-1.0 426:-0.7142857142857143 427:-0.6 428:-0.7142857142857143 429:-1.0 430:-1.0 431:-0.7142857142857143 432:-1.0 434:-1.0 435:-1.0 436:-0.4285714285714286 437:-1.0 438:-0.33333333333333337 440:-1.0 441:-0.6 442:-1.0 443:-1.0 444:-1.0 445:-1.0 446:-1.0 447:-1.0 449:-1.0 450:-1.0 451:-1.0 452:-1.0 453:-1.0 454:-1.0 455:-1.0 456:-1.0 458:-1.0 459:-1.0 460:-0.7142857142857143 461:-1.0 462:1.0 463:1.0 464:-1.0 465:-1.0 466:-1.0 467:-1.0 468:-1.0 469:-1.0 470:-1.0 471:-1.0 473:-1.0 474:-1.0 476:-1.0 477:-1.0 479:-1.0 482:-1.0 483:-1.0 484:-1.0 485:-1.0 486:-1.0 487:-1.0 488:-1.0 489:-1.0 490:-1.0 491:-1.0 492:-1.0 494:-1.0 495:-1.0 497:-1.0 498:-1.0 500:-1.0 501:-1.0 503:-1.0 506:-1.0 507:-1.0 508:-1.0 509:-1.0 513:-1.0 514:-1.0 515:-1.0 516:-1.0 522:-1.0 524:-1.0 525:-1.0 527:-1.0 531:-1.0 532:-1.0 533:-1.0 537:-1.0 538:-1.0 539:-1.0 540:-1.0 546:-1.0 548:-1.0 549:-1.0 551:-1.0 556:-1.0 557:-1.0 561:-1.0 563:-1.0 564:-1.0 570:-1.0 572:-1.0 573:-1.0 575:-1.0 579:-1.0 580:-1.0 581:-1.0 585:-1.0 587:-1.0 588:-1.0 594:-1.0 596:-1.0 597:-1.0 599:-1.0 604:0.6713566982177881 605:-0.33057169571220446 606:-0.6927990708478513 607:-0.8914728682170543 608:-0.8405315614617941 609:-0.801418439716312 610:-0.8152173913043479 611:-0.8375241779497099 612:-0.7878260869565217 613:-0.7960444993819531 614:-0.7772567409144198 615:-0.7369519832985386 616:-0.7363083164300203 617:-0.7775467775467775 618:-0.801980198019802 619:-0.8269794721407624 620:-0.8848758465011287 621:-0.8701870187018702 
0.4945036252413837 2:1.0 3:-1.0 4:-0.7142857142857143 5:-0.33333333333333337 6:-0.5 7:-1.0 8:-1.0 9:-1.0 10:-1.0 11:-1.0 12:-1.0 13:-1.0 14:-1.0 15:-1.0 16:-1.0 17:-1.0 18:-1.0 19:-1.0 20:-1.0 21:-1.0 22:-1.0 23:-1.0 25:-1.0 27:-0.4285714285714286 28:-0.33333333333333337 29:1.0 31:-1.0 32:-1.0 33:-1.0 34:-1.0 35:-1.0 36:-1.0 37:-1.0 38:-1.0 39:-1.0 40:-1.0 41:-1.0 42:-1.0 43:-1.0 44:-1.0 45:-1.0 46:-1.0 49:-1.0 50:-0.1428571428571429 51:0.1428571428571428 52:-0.7142857142857143 53:0.19999999999999996 55:-0.7142857142857143 56:-1.0 57:-1.0 58:-1.0 59:-1.0 60:-1.0 61:-1.0 62:-1.0 63:-1.0 64:-1.0 65:-1.0 66:-1.0 67:-1.0 68:-1.0 69:-1.0 70:-1.0 71:-1.0 73:-1.0 74:0.1428571428571428 75:-0.4285714285714286 76:-0.7142857142857143 78:-0.4285714285714286 79:-0.7142857142857143 80:-1.0 81:-1.0 82:-1.0 83:-1.0 84:-1.0 85:-1.0 86:-1.0 87:-1.0 88:-1.0 89:-1.0 90:-1.0 91:-1.0 92:-1.0 93:-1.0 94:-1.0 95:-1.0 97:-1.0 98:-0.5 99:-0.7142857142857143 100:-1.0 101:1.0 102:-1.0 103:-1.0 104:-1.0 105:-1.0 106:-1.0 107:-1.0 108:-1.0 109:-1.0 110:-1.0 112:-1.0 113:-1.0 114:-1.0 115:-1.0 116:-1.0 117:-1.0 118:-1.0 121:-1.0 122:-0.5 123:-0.6666666666666667 124:-1.0 125:-1.0 126:-1.0 127:-1.0 128:-1.0 129:-1.0 130:-1.0 131:-1.0 132:-1.0 133:-1.0 134:-1.0 136:-1.0 137:-1.0 138:-1.0 139:-1.0 140:-1.0 141:-1.0 142:-1.0 145:-1.0 146:0.8928571428571428 147:-0.15384615384615385 148:-0.24137931034482762 149:0.9259259259259258 150:-0.13043478260869568 151:0.6666666666666667 152:0.26315789473684204 153:0.05263157894736836 154:0.36363636363636354 155:0.5652173913043479 156:-0.21739130434782605 157:0.33333333333333326 158:-0.6842105263157895 159:0.2941176470588236 160:0.11111111111111116 161:-0.05882352941176472 162:0.1428571428571428 163:-0.4666666666666667 165:-0.3846153846153846 167:-0.05882352941176472 168:-0.5 169:0.06666666666666665 170:-0.4285714285714286 171:-0.07692307692307687 172:-0.19999999999999996 174:-0.11111111111111116 175:0.19999999999999996 176:0.11111111111111116 177:0.16666666666666674 178:0.4545454545454546 179:-0.5 180:0.3999999999999999 182:0.4545454545454546 183:0.09090909090909083 184:0.33333333333333326 185:0.1428571428571428 186:-0.09090909090909094 187:-0.11111111111111116 188:-0.25 189:0.3999999999999999 190:-0.5 192:-0.11111111111111116 193:0.25 194:-0.07692307692307687 195:0.33333333333333326 196:0.1428571428571428 197:0.5555555555555556 198:0.33333333333333326 199:0.2727272727272727 200:0.33333333333333326 201:0.11111111111111116 203:-0.1428571428571429 204:-0.4285714285714286 206:-0.4285714285714286 207:0.1428571428571428 208:0.33333333333333326 209:0.25 210:-0.05882352941176472 211:0.16666666666666674 212:-0.4285714285714286 213:-0.1428571428571429 214:0.19999999999999996 215:-0.19999999999999996 216:0.1428571428571428 218:-0.23076923076923073 219:0.19999999999999996 221:0.1428571428571428 222:0.1428571428571428 224:0.33333333333333326 225:0.1428571428571428 226:0.33333333333333326 228:-0.19999999999999996 229:0.11111111111111116 230:-0.4285714285714286 231:-0.33333333333333337 232:-0.19999999999999996 233:-0.19999999999999996 234:-0.19999999999999996 235:-0.1428571428571429 238:0.2857142857142858 239:-0.052631578947368474 240:0.5 241:-0.1578947368421053 242:-0.19999999999999996 243:0.16666666666666674 245:0.19999999999999996 246:0.11111111111111116 247:-0.6666666666666667 248:-0.2857142857142857 249:-0.23076923076923073 251:-0.2727272727272727 252:-0.8 253:-0.09090909090909094 254:-0.8 255:0.23076923076923084 257:0.07692307692307687 258:0.2727272727272727 259:0.6000000000000001 260:0.6363636363636365 261:-0.11111111111111116 262:0.6363636363636365 263:0.3999999999999999 265:0.19999999999999996 266:-1.0 267:-0.7142857142857143 268:-1.0 269:-1.0 270:-0.7142857142857143 271:-1.0 272:-0.4285714285714286 273:-0.7142857142857143 274:-1.0 275:-0.4285714285714286 276:-1.0 277:-0.7142857142857143 278:-0.7142857142857143 279:-0.4285714285714286 280:-0.4285714285714286 281:-1.0 282:-1.0 283:-1.0 284:-1.0 285:-1.0 286:-0.1428571428571429 287:-0.1428571428571429 288:-0.7142857142857143 289:0.4285714285714286 290:0.1428571428571428 291:0.1428571428571428 292:0.1428571428571428 293:-0.1428571428571429 294:0.1428571428571428 295:0.1428571428571428 296:-0.1428571428571429 297:-0.7142857142857143 298:-0.4285714285714286 299:0.4285714285714286 300:0.1428571428571428 301:-0.4285714285714286 302:-0.4285714285714286 303:-0.1428571428571429 304:-0.7142857142857143 305:0.4285714285714286 306:-0.4285714285714286 307:-0.7142857142857143 308:-1.0 309:-0.1428571428571429 310:-0.1428571428571429 311:-0.4285714285714286 312:-0.1428571428571429 313:-0.7142857142857143 314:0.7142857142857142 315:0.4285714285714286 316:-0.1428571428571429 317:-0.4285714285714286 318:-0.1428571428571429 319:0.1428571428571428 320:0.7142857142857142 321:-0.7142857142857143 322:-1.0 323:-0.4285714285714286 324:-0.4285714285714286 325:-0.1428571428571429 326:-1.0 327:-0.7142857142857143 328:-1.0 329:-1.0 330:-1.0 331:-0.7142857142857143 332:-0.7142857142857143 333:-0.7142857142857143 334:-0.4285714285714286 335:-0.4285714285714286 336:-0.7142857142857143 337:-0.4285714285714286 338:-0.7142857142857143 339:-0.7142857142857143 340:-0.4285714285714286 341:-1.0 342:-0.7142857142857143 343:-1.0 344:-1.0 345:-1.0 346:-0.6981132075471699 347:-0.07352941176470584 348:0.009345794392523255 349:0.2549019607843137 350:0.3580246913580247 351:0.5774647887323943 352:0.25773195876288657 353:0.7818181818181817 354:0.4054054054054055 355:0.7894736842105263 356:0.8095238095238095 357:0.7464788732394365 362:-0.8571428571428572 363:0.1333333333333333 365:-0.10526315789473684 366:-0.1333333333333333 367:0.16363636363636358 368:0.0714285714285714 369:-0.1351351351351351 378:-1.0 379:1.0 380:1.0 381:0.875 382:1.0 383:1.0 384:1.0 385:0.8823529411764706 386:0.625 387:0.5 388:0.5 389:0.6666666666666667 390:0.75 391:0.7647058823529411 392:0.75 393:0.3999999999999999 411:1.0 412:-0.1428571428571429 413:-0.4285714285714286 414:-0.19999999999999996 416:-1.0 417:-1.0 418:-1.0 419:-1.0 420:-1.0 421:-1.0 422:-1.0 423:-1.0 424:-1.0 425:-1.0 426:-1.0 427:-1.0 428:-1.0 429:-1.0 430:-1.0 431:-1.0 432:-1.0 434:-1.0 435:-0.6 436:-0.4285714285714286 437:-0.5 438:-0.33333333333333337 440:-0.6 441:-1.0 442:-1.0 443:-1.0 444:-1.0 445:-1.0 446:-1.0 447:-1.0 449:-1.0 450:-1.0 451:-1.0 452:-1.0 453:-1.0 454:-1.0 455:-1.0 456:-1.0 458:-1.0 459:-0.33333333333333337 460:-0.7142857142857143 461:-1.0 462:1.0 464:-1.0 465:-1.0 466:-1.0 467:-1.0 468:-1.0 469:-1.0 470:-1.0 471:-1.0 473:-1.0 474:-1.0 476:-1.0 477:-1.0 479:-1.0 482:-1.0 483:-1.0 484:-0.6666666666666667 485:-1.0 486:-1.0 487:-1.0 488:-1.0 489:-1.0 490:-1.0 491:-1.0 492:-1.0 494:-1.0 495:-1.0 497:-1.0 498:-1.0 500:-1.0 501:-1.0 503:-1.0 506:-1.0 507:-1.0 508:-0.33333333333333337 509:-1.0 513:-1.0 514:-1.0 515:-1.0 516:-1.0 522:-1.0 524:-1.0 525:-1.0 527:-1.0 531:-1.0 532:-0.33333333333333337 533:-1.0 537:-1.0 538:-1.0 539:-1.0 540:-1.0 546:-1.0 548:-1.0 549:-1.0 551:-1.0 556:-1.0 557:-1.0 561:-1.0 563:-1.0 564:-1.0 570:-1.0 572:-1.0 573:-1.0 575:-1.0 579:-1.0 580:-0.6666666666666667 581:-1.0 585:-1.0 587:-1.0 588:-1.0 594:-1.0 596:-1.0 597:-1.0 599:-1.0 604:0.7115358001081995 605:0.22902350140697503 606:-0.17363530778164926 607:-0.7105943152454781 608:-0.6445182724252492 609:-0.17730496453900713 611:-0.38878143133462284 612:-0.46434782608695657 613:-0.7849196538936959 614:-0.7233294255568581 615:-0.31941544885177453 616:-0.4117647058823529 617:-0.5613305613305613 618:-0.654879773691655 619:-0.6187683284457478 620:-0.7629796839729119 621:-0.7447744774477447 
2.0 2:-0.7142857142857143 3:-1.0 4:-0.7142857142857143 5:-1.0 6:-1.0 7:-0.7142857142857143 8:-1.0 9:-1.0 10:-1.0 11:-1.0 12:-1.0 13:-1.0 14:-1.0 15:-1.0 16:-0.7142857142857143 17:-1.0 18:-1.0 19:-1.0 20:-1.0 21:-1.0 22:-1.0 23:-1.0 25:-1.0 26:-1.0 27:-0.4285714285714286 28:0.33333333333333326 29:-1.0 31:1.0 32:-1.0 33:-1.0 35:-1.0 36:-1.0 37:-0.33333333333333337 38:-1.0 39:-1.0 40:0.33333333333333326 41:-1.0 42:-1.0 43:-1.0 44:-1.0 45:-1.0 46:-1.0 49:-1.0 50:-1.0 51:-0.1428571428571429 52:0.4285714285714286 53:-1.0 54:-1.0 55:-0.4285714285714286 56:-0.7142857142857143 57:-1.0 58:-0.1428571428571429 59:-0.6 60:-0.33333333333333337 61:-0.1428571428571429 62:-1.0 63:-1.0 64:-0.33333333333333337 65:-1.0 66:-1.0 67:-1.0 68:-1.0 69:-1.0 70:-0.7142857142857143 71:-1.0 73:-1.0 74:-0.7142857142857143 75:-0.1428571428571429 76:0.1428571428571428 77:-0.5 78:-0.1428571428571429 79:-0.1428571428571429 80:-1.0 81:-1.0 82:-0.4285714285714286 83:-1.0 84:-1.0 85:-0.6666666666666667 86:-1.0 87:-1.0 88:-0.1428571428571429 89:-1.0 90:-1.0 91:-1.0 92:-1.0 93:-1.0 94:-1.0 95:-1.0 97:-1.0 98:-1.0 99:-0.7142857142857143 101:-1.0 102:-1.0 104:-1.0 105:-1.0 106:-0.5 107:-1.0 108:-1.0 110:-1.0 112:-0.33333333333333337 113:-1.0 114:-1.0 115:-1.0 116:-1.0 117:-1.0 118:-1.0 121:-1.0 122:-1.0 123:-0.6666666666666667 125:-1.0 126:-1.0 127:-0.33333333333333337 128:-1.0 129:-1.0 130:-0.5 131:-1.0 132:-1.0 133:-0.33333333333333337 134:-1.0 136:-0.33333333333333337 137:-1.0 138:-1.0 139:-1.0 140:-1.0 141:-1.0 142:-1.0 145:-1.0 146:-0.6785714285714286 147:-0.3076923076923077 148:0.4482758620689655 149:0.5555555555555556 150:-0.30434782608695654 151:-0.5833333333333333 152:0.1578947368421053 153:-0.8947368421052632 154:-0.09090909090909094 155:0.5652173913043479 156:0.13043478260869557 157:-0.2222222222222222 158:-0.4736842105263158 159:0.5294117647058822 160:0.11111111111111116 161:-0.17647058823529416 162:0.2857142857142858 163:0.19999999999999996 164:-0.33333333333333337 165:-0.5384615384615384 166:-0.11111111111111116 167:0.2941176470588236 169:-0.06666666666666665 170:0.2857142857142858 171:0.3846153846153846 174:-0.11111111111111116 175:0.19999999999999996 176:0.33333333333333326 178:0.4545454545454546 180:0.19999999999999996 181:-0.2222222222222222 182:-0.09090909090909094 183:0.2727272727272727 184:0.11111111111111116 185:0.1428571428571428 186:0.09090909090909083 187:-0.11111111111111116 188:-0.5 189:0.19999999999999996 190:0.25 191:0.19999999999999996 192:0.11111111111111116 194:-0.07692307692307687 195:-0.11111111111111116 196:-0.1428571428571429 197:-0.11111111111111116 198:0.11111111111111116 199:-0.09090909090909094 200:0.11111111111111116 201:-0.11111111111111116 203:0.1428571428571428 204:-0.1428571428571429 205:0.25 206:0.4285714285714286 207:-0.1428571428571429 208:-0.33333333333333337 210:-0.23529411764705888 211:0.16666666666666674 212:-0.1428571428571429 213:-0.1428571428571429 214:0.19999999999999996 215:-0.19999999999999996 216:0.1428571428571428 218:-0.3846153846153846 220:-0.19999999999999996 221:-0.1428571428571429 222:0.1428571428571428 224:0.11111111111111116 225:-0.1428571428571429 226:0.33333333333333326 227:0.25 228:-0.19999999999999996 229:0.11111111111111116 230:0.1428571428571428 231:-0.33333333333333337 232:-0.19999999999999996 233:0.19999999999999996 234:0.19999999999999996 235:0.1428571428571428 236:-0.33333333333333337 237:-0.33333333333333337 238:0.1428571428571428 239:-0.052631578947368474 240:-0.19999999999999996 241:0.26315789473684204 242:0.06666666666666665 243:-0.16666666666666663 244:0.1428571428571428 246:0.33333333333333326 249:-0.23076923076923073 250:0.16666666666666674 251:-0.4545454545454546 252:-0.19999999999999996 253:-0.09090909090909094 254:-0.4 255:-0.5384615384615384 257:-0.07692307692307687 258:-0.09090909090909094 259:-0.19999999999999996 260:0.4545454545454546 261:-0.33333333333333337 262:0.4545454545454546 263:-0.19999999999999996 264:0.25 265:0.19999999999999996 266:-0.1428571428571429 267:-0.4285714285714286 268:0.1428571428571428 269:0.7142857142857142 270:0.7142857142857142 271:-0.4285714285714286 272:-0.4285714285714286 273:-0.1428571428571429 274:0.1428571428571428 275:0.7142857142857142 276:-0.4285714285714286 277:-0.7142857142857143 278:0.4285714285714286 279:0.4285714285714286 280:-0.4285714285714286 281:-0.4285714285714286 282:-0.4285714285714286 283:0.7142857142857142 284:0.4285714285714286 285:0.7142857142857142 286:-0.1428571428571429 287:-0.1428571428571429 288:0.7142857142857142 289:-0.1428571428571429 290:0.7142857142857142 291:0.1428571428571428 292:-0.4285714285714286 293:0.1428571428571428 294:0.7142857142857142 295:0.7142857142857142 296:0.4285714285714286 297:-0.4285714285714286 298:0.1428571428571428 299:0.1428571428571428 300:0.4285714285714286 301:-0.4285714285714286 302:-0.1428571428571429 303:0.1428571428571428 304:0.4285714285714286 305:1.0 306:-1.0 307:0.7142857142857142 308:0.7142857142857142 309:-0.1428571428571429 310:0.1428571428571428 311:-0.4285714285714286 312:0.7142857142857142 313:0.1428571428571428 314:-0.1428571428571429 315:0.4285714285714286 316:0.4285714285714286 317:0.1428571428571428 318:0.4285714285714286 319:-0.1428571428571429 320:0.1428571428571428 321:-0.4285714285714286 322:0.4285714285714286 323:-0.1428571428571429 324:0.7142857142857142 325:0.4285714285714286 326:-0.4285714285714286 327:-0.1428571428571429 328:0.1428571428571428 329:-0.1428571428571429 330:0.7142857142857142 331:-0.7142857142857143 332:-0.4285714285714286 333:-0.1428571428571429 334:0.4285714285714286 335:1.0 336:-0.7142857142857143 337:0.7142857142857142 338:0.1428571428571428 339:0.4285714285714286 340:0.4285714285714286 341:-1.0 342:0.7142857142857142 343:-0.1428571428571429 344:0.4285714285714286 345:0.7142857142857142 346:0.34905660377358494 347:-0.16176470588235292 348:-0.33644859813084116 349:0.3202614379084967 350:0.06172839506172845 351:-0.21126760563380287 352:-0.030927835051546393 353:0.23636363636363633 354:-1.0 355:-0.10526315789473684 356:0.04761904761904767 357:0.15492957746478875 362:0.2857142857142858 363:-0.4666666666666667 364:0.33333333333333326 365:0.10526315789473695 366:-0.1333333333333333 367:0.05454545454545445 368:0.2857142857142858 369:-0.18918918918918914 378:-1.0 379:-1.0 380:-1.0 381:-0.5 382:-1.0 383:-1.0 384:0.125 385:-0.4117647058823529 386:-0.25 387:-1.0 388:0.125 389:0.6666666666666667 390:0.875 391:0.5294117647058822 392:0.5 393:0.30000000000000004 411:-0.1428571428571429 412:0.1428571428571428 413:0.7142857142857142 414:-0.6 415:-0.33333333333333337 416:0.1428571428571428 417:-0.7142857142857143 418:-1.0 419:0.1428571428571428 420:-0.7142857142857143 421:-0.6 422:-0.1428571428571429 423:-1.0 424:-1.0 425:0.4285714285714286 426:-1.0 427:-1.0 428:-0.7142857142857143 429:-1.0 430:-1.0 431:-0.7142857142857143 432:-1.0 434:-1.0 435:-1.0 436:-0.4285714285714286 437:-0.5 438:-1.0 440:-0.6 441:-1.0 442:-1.0 444:-1.0 445:-1.0 446:-0.33333333333333337 447:-1.0 449:-0.33333333333333337 450:-1.0 451:-1.0 452:-1.0 453:-1.0 454:-1.0 455:-1.0 456:-1.0 458:-1.0 459:-1.0 460:-0.7142857142857143 462:-1.0 464:-0.33333333333333337 465:-1.0 466:-1.0 467:-0.6 468:-1.0 469:-1.0 470:-1.0 471:-1.0 473:-1.0 474:-1.0 476:-1.0 477:-1.0 479:-1.0 482:-1.0 483:-1.0 484:-0.6666666666666667 485:-1.0 486:-1.0 487:-1.0 488:-1.0 489:-1.0 490:-1.0 491:-1.0 492:-1.0 494:-1.0 495:-1.0 497:-1.0 498:-1.0 500:-1.0 501:-1.0 503:-1.0 506:-1.0 507:-1.0 508:-1.0 509:-1.0 513:-1.0 514:-1.0 515:-1.0 516:-1.0 522:-1.0 524:-1.0 525:-1.0 527:-1.0 531:-1.0 532:-1.0 533:-1.0 537:-1.0 538:-1.0 539:-1.0 540:-1.0 546:-1.0 548:-1.0 549:-1.0 551:-1.0 556:-1.0 557:-1.0 561:-1.0 563:-1.0 564:-1.0 570:-1.0 572:-1.0 573:-1.0 575:-1.0 579:-1.0 580:-1.0 581:-1.0 585:-1.0 587:-1.0 588:-1.0 594:-1.0 596:-1.0 597:-1.0 599:-1.0 604:0.40752110514198003 605:-0.43688381506897256 606:-0.9012775842044135 607:-0.7131782945736433 608:-0.6146179401993355 609:-0.44680851063829785 610:-0.19565217391304346 611:-0.4081237911025145 612:-0.4017391304347826 613:-0.6823238566131026 614:-0.4724501758499414 615:-0.4112734864300627 616:-0.4401622718052738 617:-0.6528066528066527 618:-0.5671852899575671 619:-0.6041055718475073 620:-0.6839729119638827 621:-0.7931793179317932 
0.6045866851037495 2:-0.1428571428571429 3:-1.0 4:-1.0 5:-1.0 6:-1.0 7:-1.0 8:-0.6 10:-1.0 11:-1.0 12:-1.0 13:-1.0 14:-1.0 15:-1.0 16:-1.0 17:-1.0 18:-1.0 19:-1.0 20:-0.4285714285714286 21:-1.0 22:-1.0 23:-1.0 25:-1.0 26:-0.5 27:-0.4285714285714286 28:-1.0 29:-1.0 31:-1.0 33:0.33333333333333326 34:-0.5 35:-1.0 36:-1.0 37:-1.0 38:-1.0 39:-1.0 40:-1.0 41:-1.0 42:-1.0 43:-1.0 44:-0.33333333333333337 45:-1.0 46:-1.0 49:-1.0 50:0.4285714285714286 51:-0.4285714285714286 52:-1.0 53:-1.0 54:-0.5 55:-1.0 56:0.4285714285714286 58:-0.1428571428571429 59:-1.0 60:-1.0 61:-1.0 62:-1.0 63:-1.0 64:-1.0 65:-1.0 66:-1.0 67:-1.0 68:0.4285714285714286 69:-1.0 70:-1.0 71:-1.0 73:-1.0 74:-0.7142857142857143 75:0.1428571428571428 76:-1.0 77:-0.5 78:-0.4285714285714286 79:-0.7142857142857143 80:-0.1428571428571429 81:-0.1428571428571429 82:-0.1428571428571429 83:-1.0 84:-1.0 85:-1.0 86:-1.0 87:-1.0 88:-1.0 89:-1.0 90:-1.0 91:-1.0 92:-0.7142857142857143 93:-1.0 94:-1.0 95:-1.0 97:-1.0 98:-0.5 99:-0.7142857142857143 100:-1.0 101:-1.0 102:-1.0 103:-1.0 106:-0.5 107:-1.0 108:-1.0 109:-1.0 110:-1.0 112:-1.0 113:-1.0 114:-1.0 115:-1.0 116:-0.33333333333333337 117:-1.0 118:-1.0 121:-1.0 122:-0.5 123:-0.6666666666666667 124:-1.0 125:-1.0 126:-1.0 127:-1.0 130:-0.5 131:-1.0 132:-1.0 133:-1.0 134:-1.0 136:-1.0 137:-1.0 138:-1.0 139:-1.0 140:-0.33333333333333337 141:-1.0 142:-1.0 145:-1.0 146:0.5 147:0.46153846153846145 148:-0.03448275862068961 149:0.6296296296296295 150:0.21739130434782616 151:0.25 152:0.1578947368421053 153:0.368421052631579 154:-0.09090909090909094 155:-0.6521739130434783 156:0.13043478260869557 157:-0.2222222222222222 158:0.26315789473684204 159:-0.05882352941176472 160:0.22222222222222232 161:-0.05882352941176472 163:-0.7333333333333334 164:0.11111111111111116 165:-0.07692307692307687 166:0.22222222222222232 167:0.17647058823529416 168:0.16666666666666674 169:-0.19999999999999996 171:-0.23076923076923073 172:-0.19999999999999996 173:-0.375 174:0.11111111111111116 175:-0.19999999999999996 176:0.33333333333333326 177:0.33333333333333326 178:0.4545454545454546 179:-0.16666666666666663 180:-0.19999999999999996 181:-0.11111111111111116 182:0.2727272727272727 183:0.09090909090909083 184:0.11111111111111116 185:0.2857142857142858 186:0.2727272727272727 187:0.33333333333333326 188:0.25 189:0.6000000000000001 190:0.25 192:0.33333333333333326 193:0.5 194:-0.23076923076923073 195:0.11111111111111116 196:0.1428571428571428 197:-0.11111111111111116 198:0.33333333333333326 199:-0.09090909090909094 200:-0.11111111111111116 201:-0.11111111111111116 203:0.1428571428571428 204:0.1428571428571428 206:0.1428571428571428 207:0.1428571428571428 208:-0.33333333333333337 209:0.25 210:-0.3529411764705882 211:0.5 212:0.5238095238095237 213:-0.1428571428571429 214:0.6000000000000001 216:-0.4285714285714286 217:0.6666666666666667 218:-0.5384615384615384 219:-0.4 220:0.8 221:-0.1428571428571429 222:0.1428571428571428 223:-0.6666666666666667 224:0.11111111111111116 225:0.1428571428571428 226:0.33333333333333326 227:-0.25 228:-0.19999999999999996 229:-0.11111111111111116 230:-0.7142857142857143 231:0.33333333333333326 232:0.19999999999999996 233:-0.19999999999999996 234:-0.19999999999999996 235:-0.4285714285714286 236:0.33333333333333326 237:-1.0 238:0.33333333333333326 239:-0.368421052631579 240:-0.4 241:0.1578947368421053 242:-0.4666666666666667 243:-0.16666666666666663 244:0.5714285714285714 245:-0.4 246:0.22222222222222232 247:0.11111111111111116 248:-0.5714285714285714 249:0.07692307692307687 250:-0.16666666666666663 251:0.4545454545454546 252:-0.6 253:-0.09090909090909094 254:-0.6 255:0.07692307692307687 256:0.19999999999999996 257:0.23076923076923084 258:0.2727272727272727 259:-0.4 260:0.2727272727272727 261:0.11111111111111116 262:0.2727272727272727 263:0.3999999999999999 265:1.0 266:-1.0 267:0.7142857142857142 268:-1.0 269:-0.7142857142857143 270:-1.0 271:-1.0 272:0.4285714285714286 273:0.4285714285714286 274:0.1428571428571428 275:-0.1428571428571429 276:-0.1428571428571429 277:-0.1428571428571429 278:0.4285714285714286 279:0.1428571428571428 280:1.0 281:-0.7142857142857143 282:0.7142857142857142 283:-0.1428571428571429 284:-0.7142857142857143 285:-0.4285714285714286 286:-1.0 287:0.4285714285714286 288:-0.7142857142857143 289:-1.0 290:-0.4285714285714286 291:-0.1428571428571429 292:0.1428571428571428 293:-0.1428571428571429 294:0.1428571428571428 295:0.4285714285714286 296:0.1428571428571428 297:-0.1428571428571429 298:-0.7142857142857143 299:0.1428571428571428 300:0.4285714285714286 301:0.1428571428571428 302:-0.4285714285714286 303:-0.1428571428571429 304:0.7142857142857142 305:0.7142857142857142 306:-0.4285714285714286 307:0.7142857142857142 308:-0.4285714285714286 309:0.4285714285714286 310:0.4285714285714286 311:-0.1428571428571429 312:0.4285714285714286 313:0.1428571428571428 314:0.1428571428571428 315:0.4285714285714286 316:-0.1428571428571429 317:0.1428571428571428 318:0.4285714285714286 319:0.4285714285714286 320:0.7142857142857142 321:-0.1428571428571429 322:-0.1428571428571429 323:0.4285714285714286 324:0.4285714285714286 325:0.7142857142857142 326:-0.7142857142857143 327:0.4285714285714286 328:0.1428571428571428 329:-0.4285714285714286 330:-0.1428571428571429 331:-0.7142857142857143 332:0.4285714285714286 333:-0.7142857142857143 334:-0.4285714285714286 335:-0.1428571428571429 336:-0.7142857142857143 337:0.4285714285714286 338:-0.4285714285714286 339:0.4285714285714286 340:-0.1428571428571429 341:-0.7142857142857143 342:0.7142857142857142 343:-0.4285714285714286 344:-0.1428571428571429 345:0.1428571428571428 346:-0.6981132075471699 347:-0.27941176470588236 348:0.04672897196261672 349:0.2549019607843137 350:0.3580246913580247 351:0.408450704225352 352:0.07216494845360821 353:0.3090909090909091 354:0.08108108108108114 355:1.0 356:0.7619047619047619 357:0.7183098591549295 362:-1.0 363:0.06666666666666665 364:1.0 365:-0.052631578947368474 366:-0.6 367:0.19999999999999996 368:0.0714285714285714 369:-0.2432432432432432 378:-1.0 379:0.33333333333333326 380:1.0 381:1.0 382:0.33333333333333326 383:-1.0 384:0.625 385:0.41176470588235303 387:1.0 388:1.0 389:1.0 390:1.0 391:1.0 392:1.0 393:0.8 411:0.7142857142857142 412:-0.1428571428571429 413:-0.7142857142857143 414:-0.6 415:-0.33333333333333337 416:-0.7142857142857143 417:0.4285714285714286 419:-0.1428571428571429 420:-1.0 421:-1.0 422:-1.0 423:-1.0 424:-1.0 425:-1.0 426:-0.7142857142857143 427:-1.0 428:-1.0 429:0.4285714285714286 430:-1.0 431:-1.0 432:-1.0 434:-1.0 435:-0.19999999999999996 436:-0.4285714285714286 437:-1.0 438:-1.0 439:-1.0 440:-1.0 441:-0.19999999999999996 442:0.33333333333333326 444:-1.0 445:-1.0 446:-1.0 447:-1.0 449:-1.0 450:-1.0 451:-1.0 452:-1.0 453:-1.0 454:-1.0 455:-1.0 456:-1.0 458:-1.0 459:-1.0 460:-0.7142857142857143 461:-1.0 462:-1.0 463:-1.0 464:-1.0 467:-0.6 468:-1.0 469:-1.0 470:-1.0 471:-1.0 473:-1.0 474:-1.0 476:-1.0 477:-1.0 479:-1.0 482:-1.0 483:-1.0 484:-0.6666666666666667 485:-1.0 486:-1.0 487:-1.0 488:-1.0 489:-0.33333333333333337 490:1.0 492:-1.0 494:-1.0 495:-1.0 497:-1.0 498:-1.0 500:-1.0 501:-1.0 503:-1.0 506:-1.0 507:-1.0 508:-1.0 509:-1.0 513:1.0 514:-1.0 515:-1.0 516:-1.0 522:-1.0 524:-1.0 525:-1.0 527:-1.0 531:-1.0 532:-1.0 533:-1.0 537:1.0 538:-1.0 539:1.0 540:-1.0 546:-1.0 548:-1.0 549:-1.0 551:-1.0 556:-1.0 557:-1.0 561:-1.0 563:-1.0 564:-1.0 570:-1.0 572:-1.0 573:-1.0 575:-1.0 579:-1.0 580:-1.0 581:-1.0 585:-1.0 587:-1.0 588:-1.0 594:-1.0 596:-1.0 597:-1.0 599:-1.0 604:0.7858624124361131 605:-0.08109807916670086 606:-0.9337979094076655 607:-0.7545219638242894 608:-0.584717607973422 609:-0.5319148936170213 610:-0.3586956521739131 611:-0.33462282398452614 612:-0.1547826086956522 613:-0.49938195302843014 614:-0.29425556858147717 615:0.010438413361169019 616:-0.24949290060851925 617:-0.6528066528066527 618:-0.5813295615275813 619:-0.6129032258064516 620:-0.7065462753950338 621:-0.8305830583058306 
2.0 2:-1.0 3:0.7142857142857142 4:-0.4285714285714286 5:-1.0 6:-0.5 7:-0.7142857142857143 8:-1.0 9:-1.0 10:-1.0 11:-1.0 12:-1.0 13:-1.0 14:-1.0 15:-1.0 16:-1.0 17:-1.0 18:-1.0 19:-1.0 20:-1.0 21:-1.0 22:-1.0 23:-1.0 25:-1.0 26:-1.0 27:-0.4285714285714286 28:0.33333333333333326 29:-1.0 32:-1.0 33:-1.0 34:-1.0 35:-1.0 36:-1.0 37:-1.0 38:-1.0 39:-1.0 40:-1.0 41:-1.0 42:-1.0 43:-1.0 44:-1.0 45:-1.0 46:-1.0 49:-1.0 50:-1.0 51:0.4285714285714286 52:0.4285714285714286 53:-1.0 54:-0.5 55:-0.4285714285714286 56:-1.0 57:-1.0 58:-1.0 59:-1.0 60:-1.0 61:-1.0 62:-1.0 63:-1.0 64:-1.0 65:-1.0 66:-1.0 67:-1.0 68:-1.0 69:-1.0 70:-1.0 71:-1.0 73:-1.0 74:-1.0 75:0.4285714285714286 76:-0.4285714285714286 77:-0.5 78:-0.4285714285714286 79:-0.1428571428571429 80:-1.0 81:-1.0 82:-1.0 83:-1.0 84:-1.0 85:-1.0 86:-1.0 87:-1.0 88:-1.0 89:-1.0 90:-1.0 91:-1.0 92:-1.0 93:-1.0 94:-1.0 95:-1.0 97:-1.0 98:-1.0 99:-0.7142857142857143 100:-0.5 101:-1.0 104:-1.0 105:-1.0 106:-1.0 107:-1.0 108:-1.0 109:-1.0 110:-1.0 112:-1.0 113:-1.0 114:-1.0 115:-1.0 116:-1.0 117:-1.0 118:-1.0 121:-1.0 122:-1.0 123:-0.33333333333333337 124:-0.5 125:-1.0 126:-1.0 127:-0.33333333333333337 128:-1.0 129:-1.0 130:-1.0 131:-1.0 132:-1.0 133:-1.0 134:-1.0 136:-1.0 137:-1.0 138:-1.0 139:-1.0 140:-1.0 141:-1.0 142:-1.0 145:-1.0 146:-0.6785714285714286 147:0.46153846153846145 148:0.5172413793103448 149:0.03703703703703698 150:-0.21739130434782605 151:0.5 152:-0.052631578947368474 153:-0.26315789473684215 155:0.13043478260869557 156:-0.04347826086956519 157:0.11111111111111116 158:-0.052631578947368474 159:0.41176470588235303 161:-0.2941176470588235 163:0.06666666666666665 165:0.3846153846153846 167:0.17647058823529416 168:-0.33333333333333337 169:0.06666666666666665 170:-0.1428571428571429 171:0.23076923076923084 172:-0.19999999999999996 176:0.11111111111111116 178:-0.09090909090909094 182:0.2727272727272727 183:0.2727272727272727 184:0.33333333333333326 185:0.1428571428571428 186:0.09090909090909083 187:-0.11111111111111116 188:0.25 189:0.19999999999999996 190:-0.25 191:0.19999999999999996 192:0.11111111111111116 193:0.25 194:-0.3846153846153846 195:-0.11111111111111116 196:-0.4285714285714286 197:0.11111111111111116 198:0.33333333333333326 199:-0.09090909090909094 200:0.11111111111111116 201:0.11111111111111116 202:0.25 203:0.4285714285714286 204:-0.1428571428571429 205:0.25 206:0.4285714285714286 207:0.1428571428571428 211:0.16666666666666674 212:-0.23809523809523814 213:-0.1428571428571429 214:0.19999999999999996 216:0.1428571428571428 218:-0.3846153846153846 219:-0.19999999999999996 220:-0.19999999999999996 221:0.1428571428571428 222:-0.1428571428571429 224:0.11111111111111116 225:-0.1428571428571429 226:0.33333333333333326 227:0.25 228:0.19999999999999996 229:0.11111111111111116 230:-0.1428571428571429 232:0.19999999999999996 233:0.19999999999999996 234:0.19999999999999996 235:0.1428571428571428 236:-0.33333333333333337 237:-0.33333333333333337 238:0.19047619047619047 239:0.05263157894736836 240:0.19999999999999996 241:-0.052631578947368474 242:-0.06666666666666665 243:-0.33333333333333337 244:-0.1428571428571429 245:0.19999999999999996 246:0.22222222222222232 247:0.11111111111111116 248:0.2857142857142858 249:0.07692307692307687 250:0.6666666666666667 251:-0.09090909090909094 252:-0.19999999999999996 253:0.2727272727272727 254:-0.6 255:-0.23076923076923073 256:-0.19999999999999996 257:-0.07692307692307687 258:-0.2727272727272727 259:-0.19999999999999996 260:0.09090909090909083 261:-0.5555555555555556 262:-0.2727272727272727 263:-0.19999999999999996 265:0.19999999999999996 266:0.4285714285714286 267:-1.0 268:-0.7142857142857143 269:-0.7142857142857143 270:-1.0 271:0.1428571428571428 272:-0.7142857142857143 273:-0.1428571428571429 274:-0.4285714285714286 275:0.7142857142857142 276:-1.0 277:-1.0 278:-1.0 279:-1.0 280:-1.0 281:-1.0 282:-1.0 283:-1.0 284:-1.0 285:-1.0 286:-0.1428571428571429 287:-1.0 288:-0.7142857142857143 289:-0.7142857142857143 290:-0.7142857142857143 291:-0.1428571428571429 292:-0.4285714285714286 293:-0.1428571428571429 294:0.1428571428571428 295:0.4285714285714286 296:-1.0 297:-0.7142857142857143 298:-0.1428571428571429 299:-0.1428571428571429 300:-0.1428571428571429 301:-1.0 302:-0.7142857142857143 303:-1.0 304:-1.0 305:-1.0 306:-0.7142857142857143 307:-1.0 308:-1.0 309:-0.7142857142857143 310:-0.7142857142857143 311:-0.4285714285714286 312:0.7142857142857142 313:-0.4285714285714286 314:-0.7142857142857143 315:-0.1428571428571429 316:-1.0 317:0.4285714285714286 318:-0.1428571428571429 319:-0.7142857142857143 320:-0.7142857142857143 321:-0.7142857142857143 322:-0.4285714285714286 323:-1.0 324:-0.4285714285714286 325:-0.1428571428571429 326:-0.7142857142857143 327:0.4285714285714286 328:-0.4285714285714286 329:0.4285714285714286 330:0.4285714285714286 331:-0.7142857142857143 332:0.4285714285714286 333:-0.1428571428571429 334:0.7142857142857142 335:0.4285714285714286 336:-0.7142857142857143 337:0.7142857142857142 338:-0.7142857142857143 339:-1.0 340:-0.4285714285714286 341:-1.0 342:0.7142857142857142 343:-0.4285714285714286 344:0.1428571428571428 345:-0.1428571428571429 346:0.028301886792452935 347:-0.20588235294117652 348:-0.26168224299065423 349:0.2549019607843137 350:0.1358024691358024 351:0.23943661971830976 352:0.09278350515463907 353:0.6363636363636365 354:-1.0 355:0.21052631578947367 356:0.23809523809523814 357:0.408450704225352 363:0.19999999999999996 366:-0.19999999999999996 367:-0.018181818181818188 368:0.0714285714285714 369:0.08108108108108114 378:-1.0 379:-1.0 380:-1.0 381:-0.25 382:-1.0 383:-1.0 384:0.625 385:0.2941176470588236 386:-0.125 387:-0.75 388:-0.125 389:0.6666666666666667 390:0.625 391:0.6470588235294117 392:0.75 411:-1.0 412:1.0 413:0.4285714285714286 414:-0.6 416:0.1428571428571428 417:-1.0 418:-1.0 419:-0.7142857142857143 420:-1.0 421:-1.0 422:-0.7142857142857143 423:-1.0 424:-1.0 425:-1.0 426:-1.0 427:-1.0 428:-1.0 429:-1.0 430:-1.0 431:-1.0 432:-1.0 434:-1.0 435:-1.0 436:-0.4285714285714286 438:-1.0 439:-1.0 440:-0.6 441:-1.0 442:-1.0 443:-1.0 444:-1.0 445:-1.0 446:-1.0 447:-1.0 449:-1.0 450:-1.0 451:-1.0 452:-1.0 453:-1.0 454:-1.0 455:-1.0 456:-1.0 458:-1.0 459:-1.0 460:-0.7142857142857143 462:-1.0 464:-0.33333333333333337 465:-1.0 466:-1.0 467:-1.0 468:-1.0 469:-1.0 470:-1.0 471:-1.0 473:-1.0 474:-1.0 476:-1.0 477:-1.0 479:-1.0 482:-1.0 483:-1.0 484:-0.6666666666666667 485:-1.0 486:-1.0 487:-1.0 488:-1.0 489:-1.0 490:-1.0 491:-1.0 492:-1.0 494:-1.0 495:-1.0 497:-1.0 498:-1.0 500:-1.0 501:-1.0 503:-1.0 506:-1.0 507:-1.0 508:-1.0 509:-1.0 513:-1.0 514:-1.0 515:-1.0 516:-1.0 522:-1.0 524:-1.0 525:-1.0 527:-1.0 531:-1.0 532:-1.0 533:-1.0 537:-1.0 538:-1.0 539:-1.0 540:-1.0 546:-1.0 548:-1.0 549:-1.0 551:-1.0 556:-1.0 557:-1.0 561:-1.0 563:-1.0 564:-1.0 570:-1.0 572:-1.0 573:-1.0 575:-1.0 579:-1.0 580:-1.0 581:-1.0 585:-1.0 587:-1.0 588:-1.0 594:-1.0 596:-1.0 597:-1.0 599:-1.0 604:0.7762610016165643 605:-0.7998206843316099 606:-0.8072009291521487 607:-0.6408268733850129 608:-0.5614617940199336 609:-0.43971631205673756 610:-0.40760869565217395 611:-0.4816247582205029 612:-0.45739130434782604 613:-0.6328800988875154 614:-0.6412661195779601 615:-0.4530271398747391 616:-0.29817444219066935 617:-0.4490644490644491 618:-0.6322489391796322 619:-0.4105571847507331 620:-0.6252821670428894 621:-0.757975797579758 
